3047 100
. 0.035119645 0.44642192 -0.02758887 -0.5304733 -0.14899072 0.15641068 0.05693772 -0.4518501 -0.12480639 -0.4115946 -0.09272934 0.51744646 0.101496324 0.23799482 -0.22793 0.13196842 0.329606 -0.5165607 -0.37579176 -0.4390447 0.010119862 -0.08872292 0.21390106 0.003896489 -0.31393287 0.045617554 0.35036474 0.13502924 -0.30660093 0.77662027 0.09562676 -0.021895176 0.3158687 -0.024030935 0.32528353 -0.37803322 0.21515423 0.6432285 -0.076680124 -0.014364523 -0.3060164 0.15643556 -0.20802988 0.52200097 0.027177673 -0.46545386 0.6455043 0.26113334 0.054000292 -0.2765226 0.040300064 -0.34540343 -0.3578136 0.37272197 0.1997116 -0.43885922 -0.23827551 0.046197247 0.28484803 -0.21310242 -0.16628964 -0.8572408 -0.15118028 0.28218898 -0.46558383 -0.06358554 0.3568923 -0.28557867 0.17286117 -0.12350195 0.6504894 0.4679925 -0.3150269 0.32971597 0.46359742 -0.3154359 -0.3241693 0.2279335 -0.107098706 0.39333677 0.406302 0.76806223 -0.3948938 0.101628706 -0.23302703 0.034834072 0.4211236 0.20475717 0.079956025 0.14184205 0.18120688 -0.20264755 0.44246542 0.16101456 -0.3298266 -0.470679 -0.648935 0.21394002 -0.2016797 0.40503418
을 0.027797671 0.4719977 -0.036785644 -0.56895506 -0.15748274 0.16382648 0.048463665 -0.45782882 -0.09604649 -0.39854184 -0.111308716 0.5239845 0.08903886 0.24659562 -0.2292648 0.1476724 0.3486466 -0.53043723 -0.3637867 -0.45402783 0.0069556786 -0.086446844 0.19976339 0.0027756908 -0.3235846 0.06197319 0.35010168 0.14491343 -0.30888313 0.7988875 0.10557488 -0.035674185 0.32053182 -0.021841224 0.34549764 -0.37069896 0.20749648 0.66467613 -0.06625967 -0.02053791 -0.29691136 0.16190399 -0.23279516 0.51406586 0.01132222 -0.49804163 0.6477117 0.25288966 0.0756052 -0.28567725 0.064569525 -0.34931976 -0.3658252 0.3717618 0.21279597 -0.41949332 -0.23839796 0.05074384 0.2947127 -0.22141728 -0.18325639 -0.8784076 -0.13614951 0.27768958 -0.44272545 -0.05795603 0.38828054 -0.301554 0.16513269 -0.13828067 0.62937355 0.45803583 -0.3285841 0.3362976 0.46557546 -0.32329637 -0.32463318 0.23655951 -0.12896131 0.39576313 0.42410475 0.7719248 -0.40931234 0.109226055 -0.23823602 0.059034545 0.42169684 0.19071904 0.0746116 0.15980148 0.19085078 -0.21888077 0.44180223 0.16159058 -0.34653065 -0.47884896 -0.637214 0.2351817 -0.20286547 0.42832857
? 0.031168843 0.4712609 0.00631228 -0.43359748 -0.18249719 0.20663211 0.09343099 -0.48643482 -0.25061503 -0.50051033 -0.09824115 0.5364459 0.09736937 0.10766822 -0.22565593 0.12541655 0.37290037 -0.5028108 -0.34263477 -0.5660003 -0.016592715 -0.1714282 0.30098823 0.050178364 -0.28643686 0.065400355 0.35536686 0.16066483 -0.26713896 0.7467301 0.12726079 0.017631942 0.37485445 0.009070167 0.2854318 -0.4458635 0.22540197 0.6909445 -0.23283681 0.053380944 -0.24987844 0.17836186 -0.21168453 0.52343947 0.011631548 -0.49360293 0.62081134 0.29547724 0.031736758 -0.4595406 0.0064414325 -0.4447894 -0.35542598 0.42391923 0.12769994 -0.38459516 -0.14716032 0.12823021 0.31061432 -0.124540575 -0.14629702 -0.7994566 -0.21558693 0.34360266 -0.5160844 -0.05414451 0.35264614 -0.404635 0.10616673 -0.08283608 0.61702764 0.42827305 -0.24253069 0.43220443 0.48787153 -0.27715483 -0.3055591 0.3079245 -0.16730197 0.37610802 0.49069265 0.7606592 -0.3204062 0.15551601 -0.16289306 -0.070673116 0.35670435 0.12779774 0.066892415 0.025359135 0.09268045 -0.30340904 0.43888897 0.280313 -0.3646505 -0.4389041 -0.6029859 0.35865054 -0.3073577 0.45487228
, 0.047331356 0.52049196 -0.050401866 -0.5472634 -0.17028974 0.17129466 0.04602541 -0.48443657 -0.12420916 -0.4142422 -0.12684163 0.50302726 0.102366686 0.22880134 -0.21667548 0.16058682 0.36343998 -0.5160047 -0.37483376 -0.46846566 -4.6525412e-05 -0.12852679 0.23866987 0.0064072977 -0.31982365 0.070155606 0.35097358 0.122387946 -0.3194012 0.7737172 0.16566838 -0.033437338 0.34747055 0.018866938 0.30968702 -0.37591636 0.21098965 0.6786709 -0.06764855 0.017650766 -0.30512515 0.1765993 -0.269538 0.53110206 0.037522446 -0.52104694 0.6641641 0.2545439 0.08621935 -0.32314745 0.060095552 -0.3760308 -0.33500785 0.3495808 0.2281331 -0.46300086 -0.19463216 0.09288459 0.2814436 -0.19983217 -0.18141472 -0.8559807 -0.1778545 0.33458617 -0.45399433 -0.09878386 0.3260604 -0.31325242 0.1494847 -0.16443117 0.6265182 0.5098174 -0.3172119 0.3364396 0.4527827 -0.3278296 -0.30725762 0.2413826 -0.11504002 0.36582056 0.44621274 0.76407015 -0.39908096 0.13499755 -0.20750886 0.045600653 0.4021292 0.14222491 0.073656894 0.10706369 0.17210655 -0.24265058 0.4257216 0.22352982 -0.34688625 -0.49929383 -0.6479823 0.24758182 -0.21862078 0.42816827
되다 0.013151982 0.4435994 -0.027185699 -0.53377205 -0.14891763 0.14194354 0.043726753 -0.4208572 -0.10558098 -0.38430902 -0.08643981 0.49840385 0.10033115 0.25704968 -0.22741683 0.12666987 0.3393902 -0.52756506 -0.3733424 -0.43303737 0.022826727 -0.07807165 0.19336285 -0.009675422 -0.30457926 0.049829163 0.3438287 0.12171053 -0.32104027 0.7708997 0.110749684 -0.03630759 0.31855884 -0.02966272 0.3219261 -0.3502324 0.19238158 0.62565964 -0.044431116 -0.007150119 -0.31739748 0.16365051 -0.20358726 0.51378554 0.022700889 -0.45135802 0.6302302 0.24822 0.066915974 -0.2597865 0.046196375 -0.3356586 -0.3621941 0.37802517 0.19927348 -0.42591116 -0.24353151 0.059498057 0.2764396 -0.187695 -0.14428473 -0.8444131 -0.15349881 0.28711757 -0.4606182 -0.073395364 0.3477873 -0.28318575 0.16064706 -0.12658201 0.60975504 0.47502905 -0.3248799 0.31944743 0.4486884 -0.30644685 -0.31993434 0.21150218 -0.11486772 0.39649913 0.39816138 0.74646395 -0.39975637 0.086496346 -0.23587392 0.053339507 0.42433703 0.18594253 0.094512306 0.15435307 0.18504483 -0.19364284 0.42232072 0.16436858 -0.3373595 -0.4533446 -0.65790474 0.19810307 -0.190975 0.39053446
윤석열 0.024102803 0.44410008 -0.039197255 -0.56043005 -0.13100371 0.14481853 0.05082788 -0.41572225 -0.05952968 -0.34819403 -0.07515938 0.49261475 0.09991798 0.2988135 -0.21801403 0.11518094 0.3331811 -0.51342106 -0.36725274 -0.38545582 0.019876048 -0.053590022 0.18110925 -0.016068274 -0.3008522 0.043237105 0.33001122 0.1111845 -0.3231007 0.7655369 0.101279125 -0.059465118 0.30357832 -0.031249875 0.32873583 -0.32716596 0.20045735 0.6327758 -0.01767556 -0.027298672 -0.33040336 0.15608732 -0.21812005 0.4978429 0.032929707 -0.44877592 0.6309965 0.24093032 0.061646212 -0.2189309 0.04285039 -0.31748393 -0.3485093 0.33943444 0.21922743 -0.4319038 -0.25742015 0.033200942 0.26334998 -0.23089166 -0.16191791 -0.8551261 -0.12039342 0.26087275 -0.43295762 -0.07684806 0.34152365 -0.23998302 0.17916194 -0.11838591 0.6142336 0.47592983 -0.33623856 0.28791788 0.43677375 -0.3055422 -0.31682253 0.2083429 -0.11230429 0.38289708 0.368498 0.72514546 -0.41757512 0.06023646 -0.25616804 0.073004335 0.42880005 0.2120485 0.084503114 0.18537837 0.21368974 -0.16927917 0.4239158 0.13767527 -0.33070603 -0.46364793 -0.6547922 0.17434478 -0.17388088 0.38295388
있다 0.02425416 0.46057227 -0.0055889525 -0.4895229 -0.17480645 0.19621874 0.06820739 -0.4682891 -0.18181162 -0.459016 -0.102317855 0.53207046 0.091521226 0.18093538 -0.22522907 0.1281061 0.34400862 -0.5117697 -0.36291945 -0.50552315 0.00886989 -0.13442335 0.26575005 0.036053378 -0.30876565 0.06857556 0.35091516 0.13816854 -0.2809959 0.7615409 0.123179816 -0.006770793 0.35683 0.011803144 0.31572294 -0.39483392 0.20243911 0.668166 -0.1390186 0.014907577 -0.2832913 0.17380007 -0.21455865 0.5243174 0.004870703 -0.47904187 0.61312145 0.27218047 0.04201054 -0.37042606 0.052388944 -0.39435142 -0.35104743 0.41182622 0.1591095 -0.4103115 -0.19266297 0.08328173 0.30598444 -0.16936935 -0.15009382 -0.8275249 -0.17807741 0.30609232 -0.4810845 -0.05381207 0.3754831 -0.35838577 0.12642449 -0.11000951 0.62918466 0.44330847 -0.29406488 0.38650325 0.46561545 -0.30126902 -0.31587416 0.26278445 -0.14772888 0.38370472 0.466579 0.75633174 -0.3541818 0.1375524 -0.20583458 -0.02024034 0.37747157 0.14971879 0.0939299 0.08650861 0.12221502 -0.2567193 0.4382955 0.22628622 -0.35075292 -0.43545598 -0.6186623 0.27979356 -0.26188028 0.42909917
이다 -0.001537399 0.4617481 -0.028086375 -0.5715747 -0.14597729 0.13178836 0.03593207 -0.4151137 -0.083699174 -0.39563075 -0.08029251 0.5298334 0.09615662 0.29418713 -0.2307413 0.13504685 0.35620433 -0.5603908 -0.3918178 -0.42454323 0.012018085 -0.08132385 0.18391784 -0.009489219 -0.3388582 0.05435379 0.36213863 0.12568352 -0.3141934 0.82507646 0.11841176 -0.03679482 0.29950553 -0.022575451 0.35090473 -0.3502883 0.2017525 0.6403159 -0.023357067 -0.013972696 -0.34018365 0.16800249 -0.21488431 0.5466633 0.040698513 -0.4517863 0.6549121 0.24695776 0.043069113 -0.2774567 0.07552674 -0.36371094 -0.36233264 0.4025616 0.20966017 -0.44059846 -0.2634105 0.041755643 0.27650082 -0.21312535 -0.17511502 -0.88273364 -0.13952148 0.27691817 -0.47014 -0.07294558 0.3737536 -0.27990428 0.17815045 -0.11959593 0.6583867 0.47193545 -0.3344539 0.32173842 0.44275644 -0.33770743 -0.35309854 0.201452 -0.12853514 0.4274795 0.40876243 0.74391973 -0.4254967 0.08752529 -0.28381902 0.07091882 0.45799884 0.19322348 0.0972754 0.16024463 0.1805212 -0.17169273 0.4391115 0.16087322 -0.3509378 -0.45462224 -0.6955986 0.21202643 -0.19035177 0.39778104
이재명 0.048753973 0.43131045 -0.014882129 -0.48178783 -0.1684125 0.17976288 0.05334202 -0.4594478 -0.14597519 -0.43438387 -0.09017397 0.48250434 0.11367958 0.18357079 -0.22306941 0.14265163 0.33027282 -0.47181183 -0.34602943 -0.46104792 0.012490809 -0.10326778 0.2330137 0.013938427 -0.2865446 0.06543658 0.342634 0.11313644 -0.29595554 0.7355627 0.121428244 -0.020296548 0.3261176 -0.010767216 0.27463645 -0.37385097 0.20625348 0.6365932 -0.09932795 0.020957856 -0.25963515 0.1618031 -0.20052189 0.5051009 0.019649329 -0.48348707 0.61466354 0.2639843 0.056190968 -0.30355054 0.013646645 -0.36234096 -0.34654608 0.35988417 0.17949615 -0.42112547 -0.19081315 0.078182094 0.2838259 -0.16067915 -0.15627973 -0.78025043 -0.18107674 0.27196187 -0.4366744 -0.060851194 0.34573492 -0.32476082 0.14859557 -0.124815375 0.59098846 0.46732736 -0.30459148 0.34781325 0.45390123 -0.2723277 -0.3001713 0.23582432 -0.12828377 0.36629432 0.42412513 0.7386598 -0.37406912 0.11114525 -0.17897765 0.008839573 0.36131543 0.16237366 0.07308849 0.09533071 0.14098348 -0.23444243 0.40715587 0.17502964 -0.33321476 -0.43367133 -0.60743946 0.22660467 -0.23430337 0.38926226
없다 0.032618515 0.4831445 -0.0061033494 -0.52073693 -0.17970806 0.18432362 0.062178284 -0.47873014 -0.16725324 -0.46731025 -0.113349736 0.5526571 0.10934699 0.19225256 -0.24075557 0.1384359 0.37241238 -0.5370919 -0.38362712 -0.5077195 0.024374807 -0.13070577 0.26072 0.026985025 -0.3297839 0.07614875 0.37031797 0.14671917 -0.30058065 0.79571205 0.1257025 -0.008239159 0.35204136 -0.0042789653 0.32680842 -0.40644947 0.20743547 0.6979959 -0.1370362 0.027279243 -0.30219567 0.17757984 -0.23348552 0.544577 0.014407319 -0.50679135 0.6518323 0.2834247 0.046941344 -0.37120157 0.048242066 -0.4106603 -0.3811784 0.42185354 0.17125809 -0.45495737 -0.20152912 0.09390417 0.30276468 -0.17771116 -0.16599527 -0.8645789 -0.18712206 0.3063226 -0.5039199 -0.055010896 0.39419618 -0.37566045 0.13724647 -0.12805074 0.65979713 0.4728549 -0.31244448 0.39281112 0.4869185 -0.3112823 -0.3457343 0.25200984 -0.14195731 0.41535333 0.47712237 0.8032633 -0.38503012 0.1384058 -0.22083977 -0.0026574128 0.4051098 0.15796702 0.09992345 0.095008835 0.1329135 -0.251346 0.4614468 0.21500662 -0.3729973 -0.46268734 -0.6671312 0.28242812 -0.25966072 0.43758637
다 0.018088458 0.4817144 -0.021308009 -0.5335495 -0.16766135 0.17749871 0.05860126 -0.4435505 -0.14072779 -0.44254047 -0.08461751 0.5332059 0.09907919 0.2265415 -0.22479571 0.12033529 0.36734638 -0.54148835 -0.37568846 -0.4835108 0.0056504975 -0.12364437 0.24233322 0.0048670284 -0.3296794 0.062201016 0.3498392 0.12645173 -0.29747674 0.7969207 0.1387361 -0.018888075 0.3367296 -0.0023127003 0.31760517 -0.37852433 0.21709792 0.6797821 -0.09961871 0.008546328 -0.31278953 0.17988475 -0.21997474 0.5407982 0.031658273 -0.47888324 0.6648706 0.264727 0.05532915 -0.34461433 0.0517147 -0.39381313 -0.35567784 0.41006115 0.20015569 -0.4261686 -0.22229992 0.07472546 0.2927773 -0.19184586 -0.17041938 -0.8620742 -0.17095014 0.31803843 -0.49368843 -0.07685359 0.37070155 -0.33685336 0.14948498 -0.121818565 0.6465641 0.48058683 -0.3029586 0.36401975 0.47552 -0.32200235 -0.33483464 0.22776459 -0.13103008 0.4066914 0.45399493 0.7726601 -0.38674584 0.12479861 -0.23865023 0.021099642 0.42580742 0.16437514 0.103095755 0.10521225 0.15300274 -0.2182147 0.4672063 0.21475635 -0.34599572 -0.45837632 -0.66016364 0.26360708 -0.23588496 0.43870056
보다 0.027550694 0.4361406 -0.0069228406 -0.46595266 -0.17549378 0.18597311 0.053037986 -0.4349929 -0.17604646 -0.46190318 -0.097373664 0.50781065 0.09694546 0.16310528 -0.21690163 0.12036766 0.3348675 -0.47963908 -0.3428822 -0.4805947 0.019583948 -0.12433584 0.25765908 0.018432306 -0.29090178 0.04957782 0.3488228 0.12109168 -0.27402183 0.7415941 0.11489956 0.010037604 0.33097234 0.0038341158 0.2750438 -0.38246456 0.21477345 0.6387049 -0.1476606 0.02901707 -0.251488 0.17365779 -0.19561583 0.50738764 0.019005468 -0.4766482 0.6057023 0.26210645 0.052094974 -0.3507227 0.014845832 -0.39349568 -0.33993065 0.38201568 0.16815999 -0.40682 -0.16973828 0.10221575 0.28997716 -0.13988544 -0.14212191 -0.77277267 -0.18566847 0.2894278 -0.46492523 -0.050325006 0.35344806 -0.35166302 0.12212068 -0.1013774 0.58702457 0.43830442 -0.28747013 0.36646506 0.46581876 -0.27246952 -0.30260432 0.2357032 -0.13829677 0.375669 0.444552 0.72072273 -0.3477366 0.12778206 -0.17419863 -0.017959394 0.3569906 0.12657103 0.080295905 0.0729056 0.10995687 -0.24507025 0.409652 0.21055043 -0.3483868 -0.41705787 -0.60378367 0.26411986 -0.24250282 0.40382245
.. 0.036601517 0.47370404 -0.010346142 -0.46764752 -0.17146845 0.19279417 0.06335295 -0.45348164 -0.18853994 -0.46302837 -0.08218986 0.51404303 0.09890075 0.17042908 -0.21332738 0.13945168 0.35192764 -0.48892266 -0.36556405 -0.5091048 0.019629242 -0.13905957 0.2709228 0.03377521 -0.3068028 0.05893507 0.34462065 0.10903305 -0.27795422 0.75062674 0.14003803 0.003401509 0.35139298 0.012589874 0.28157875 -0.40371674 0.2134544 0.6801147 -0.14219187 0.037913203 -0.28766003 0.18305889 -0.21844661 0.531717 0.036885675 -0.48820597 0.63507956 0.26714358 0.059763256 -0.37758613 0.019472707 -0.41197288 -0.35938337 0.39999965 0.18280351 -0.42476338 -0.1896721 0.10911987 0.29278642 -0.16118313 -0.13743398 -0.8125333 -0.19770628 0.3234253 -0.48303434 -0.07645024 0.3618961 -0.3666983 0.11627867 -0.11169292 0.6294669 0.48195454 -0.2858714 0.37305775 0.48683366 -0.29410425 -0.30307552 0.24445859 -0.12500356 0.37824732 0.47150263 0.7709499 -0.3489366 0.13932338 -0.18529485 -0.020812463 0.3749905 0.13287951 0.09503387 0.07201969 0.11830107 -0.24992871 0.4425299 0.22881359 -0.35151553 -0.44317126 -0.633698 0.2849562 -0.25332355 0.43964007
... 0.029539574 0.47560337 -0.009525046 -0.4802771 -0.1855583 0.19178644 0.06617349 -0.45409024 -0.19018188 -0.46151686 -0.09403886 0.5336547 0.10029642 0.16728097 -0.22053814 0.118617855 0.34584185 -0.49747598 -0.35370937 -0.5099641 0.0060822912 -0.14156522 0.2741182 0.03249757 -0.30847523 0.060385212 0.33899382 0.12955521 -0.280791 0.7541397 0.13527906 0.005383438 0.3510794 0.0056805266 0.28397265 -0.38964453 0.21933791 0.669415 -0.15508634 0.031566493 -0.2836791 0.18612821 -0.22707507 0.5338633 0.02445543 -0.4824279 0.6277017 0.2655666 0.048069146 -0.37750044 0.03255355 -0.41780472 -0.34117976 0.40481117 0.17483935 -0.4216609 -0.18822171 0.109781995 0.28563216 -0.15547878 -0.15759449 -0.81098527 -0.17865264 0.31294063 -0.48711592 -0.06900379 0.34937775 -0.357117 0.11980332 -0.10492272 0.6242347 0.46194807 -0.2753075 0.3772946 0.48557386 -0.30399215 -0.30637577 0.24669911 -0.13105686 0.38328227 0.46068564 0.74966866 -0.34878877 0.14555596 -0.18689184 -0.015383422 0.37374982 0.14120145 0.09411587 0.071092226 0.11967384 -0.24754545 0.44648466 0.2269885 -0.35269904 -0.43159595 -0.6236225 0.28123844 -0.26116782 0.41904482
국민 0.0056133694 0.4751618 -0.05682137 -0.5852829 -0.16007909 0.14935337 0.03732914 -0.43892443 -0.06438238 -0.34183916 -0.097583994 0.52968764 0.07312774 0.29867977 -0.22378676 0.12045107 0.3251239 -0.54784673 -0.36261022 -0.39368945 0.013240616 -0.065045394 0.15464112 -0.013947504 -0.31667742 0.043904413 0.34146252 0.12979533 -0.30168724 0.79241425 0.10306103 -0.054065038 0.29477528 -0.02170501 0.37321827 -0.3541469 0.20365632 0.64489704 -0.020241803 -0.03481845 -0.30094108 0.1576183 -0.23329471 0.5223348 0.017325806 -0.45084563 0.642394 0.24029621 0.07439151 -0.22830178 0.08361789 -0.32539964 -0.35373035 0.37053344 0.22779 -0.4296361 -0.2655486 0.03501635 0.2751142 -0.24154702 -0.19264357 -0.8986647 -0.11144692 0.26060015 -0.4488914 -0.06759281 0.35182428 -0.25082022 0.16366169 -0.13175832 0.6467276 0.44250453 -0.31693974 0.296222 0.44554636 -0.34950057 -0.32069466 0.1969676 -0.12674266 0.41881818 0.3749686 0.73843527 -0.4222061 0.084748305 -0.28541073 0.07343046 0.4366407 0.22284472 0.08716191 0.18433332 0.21607298 -0.17472625 0.4275235 0.12828086 -0.32777697 -0.46254563 -0.6665084 0.2045129 -0.16700333 0.39644116
로 0.023674175 0.5115911 -0.044869665 -0.5905983 -0.1656165 0.16720723 0.058492426 -0.46231803 -0.11005333 -0.42210308 -0.08888355 0.5593221 0.10355545 0.27499494 -0.23122272 0.13819477 0.36973464 -0.566419 -0.38948208 -0.4554992 0.022569029 -0.104833305 0.21267197 0.010826891 -0.33435488 0.05532019 0.36921743 0.11908298 -0.33519813 0.8284381 0.14502533 -0.027663682 0.3408709 -0.008994729 0.34538925 -0.38211927 0.21671617 0.7056763 -0.061203912 -0.006152842 -0.334235 0.180957 -0.24417406 0.557531 0.036740877 -0.4921032 0.69796354 0.27127448 0.06722813 -0.30181852 0.04932596 -0.3932157 -0.3734745 0.39557144 0.23425674 -0.45074445 -0.25397724 0.0693696 0.29791725 -0.23135276 -0.17843589 -0.9207512 -0.15451217 0.29999277 -0.4880581 -0.0807411 0.3639565 -0.3110249 0.17257176 -0.12748732 0.6763422 0.5162336 -0.34092656 0.34947896 0.49552703 -0.33891463 -0.3411818 0.2343721 -0.1246795 0.41925398 0.43615824 0.79957455 -0.42329007 0.10561642 -0.26129755 0.06078883 0.4462706 0.19814292 0.09988429 0.16005889 0.19883342 -0.20569424 0.46877742 0.1913952 -0.36382067 -0.49373347 -0.704147 0.23776081 -0.2191569 0.4452353
정권 -0.2630622 0.5308566 -0.15765464 -1.0265622 -0.06361969 -0.22403726 -0.11449471 -0.021999663 0.40361038 0.16216826 0.011809768 0.6210099 -0.043236554 0.99695015 -0.31425446 0.061592504 0.17329751 -1.0014677 -0.5394998 0.15154514 0.047472596 0.1689395 -0.29273987 -0.2144008 -0.33493295 -0.00817861 0.2758729 0.06785906 -0.5314443 1.0594684 0.15140916 -0.1114364 0.06170633 -0.17473605 0.7212378 -0.0013439684 0.025096077 0.4964688 0.6359444 -0.28526628 -0.8843075 0.11269081 -0.3059073 0.60513777 0.08397905 -0.12794393 0.75551015 0.037307277 0.09180391 0.2441746 0.33154935 -0.08835747 -0.40491486 0.4208012 0.47129375 -0.61400956 -0.7902614 -0.2349968 0.037714176 -0.5872422 -0.2341841 -1.3129326 0.20429143 0.33585447 -0.536898 -0.19497913 0.17843711 0.26414505 0.26533073 -0.3343677 0.92428195 0.6299146 -0.47730955 -0.15085049 0.23942031 -0.5992067 -0.39928725 -0.02921213 0.0834352 0.5785375 0.05613003 0.72504085 -0.62898636 -0.21631822 -0.90772486 0.55815905 0.9184092 0.4958154 0.25020808 0.6449427 0.56295 0.35869116 0.42861733 -0.12952536 -0.11407421 -0.56788164 -1.1596861 -0.28190562 0.3015456 0.25884852
아니다 0.018855363 0.4650777 -0.0062327217 -0.51821643 -0.18289822 0.17907986 0.069721796 -0.44850108 -0.15868667 -0.44375497 -0.099133514 0.5232646 0.09315452 0.20516908 -0.23000085 0.14091483 0.35084456 -0.5127519 -0.36374444 -0.4846988 0.013416971 -0.114105344 0.25248516 0.026116058 -0.31483686 0.06587014 0.35245645 0.13733228 -0.2985699 0.79969233 0.13109115 -0.008154393 0.34115437 -0.0032588523 0.3089404 -0.38899085 0.20342676 0.6556293 -0.11929425 0.019942492 -0.2780787 0.18579988 -0.22040442 0.526658 0.024942761 -0.4810862 0.62944555 0.27655482 0.054550868 -0.34722698 0.03503814 -0.39607775 -0.36013907 0.38982627 0.17741305 -0.41050842 -0.18767686 0.08726578 0.29246467 -0.17198904 -0.15650699 -0.8334721 -0.17418931 0.29957843 -0.47759363 -0.062191024 0.37284696 -0.34417015 0.14383955 -0.10809112 0.6211587 0.4570895 -0.28531978 0.3833862 0.46944955 -0.3072641 -0.3260915 0.24940577 -0.14476267 0.38336024 0.443763 0.75220263 -0.36438394 0.1261524 -0.22337234 0.014241028 0.38799694 0.15151176 0.08904294 0.09266849 0.14314057 -0.22734426 0.43139142 0.21227111 -0.35346058 -0.44836524 -0.6348795 0.27884296 -0.23430112 0.41378906
! 0.0062541254 0.49613696 -0.060893502 -0.6045016 -0.1399926 0.12668958 0.035198517 -0.39472765 -0.072695695 -0.34803158 -0.054102004 0.5260453 0.08618611 0.32809657 -0.21483278 0.11585525 0.34192392 -0.5530274 -0.39067084 -0.3904607 0.023554679 -0.08066326 0.17334765 -0.02519274 -0.3339156 0.044494417 0.34496862 0.1223651 -0.33380568 0.78636926 0.118049 -0.06422087 0.3042958 -0.027242048 0.36201048 -0.33114737 0.2081691 0.6561092 -0.0093989875 -0.016583271 -0.37620956 0.1533835 -0.22536385 0.52757305 0.054965764 -0.43660182 0.6847792 0.23385146 0.056323543 -0.2519462 0.06428467 -0.3296563 -0.3544812 0.37912604 0.22466949 -0.44144073 -0.2794938 0.03831662 0.27419052 -0.2514761 -0.16300265 -0.92572176 -0.11676684 0.29459164 -0.4759813 -0.094262846 0.33854046 -0.24786665 0.18500692 -0.12830976 0.64871174 0.49403834 -0.34254152 0.2971759 0.43535274 -0.34815446 -0.34151188 0.1977866 -0.1111806 0.42476708 0.3834868 0.761705 -0.4281116 0.060858164 -0.31141686 0.099986695 0.47457087 0.2341708 0.101887695 0.17842543 0.20823823 -0.1706771 0.45269087 0.16952552 -0.33235332 -0.49040708 -0.6928184 0.20045853 -0.17857386 0.42036957
대통령 0.043500144 0.41504312 -0.047001664 -0.50858843 -0.14495671 0.15494849 0.043550655 -0.41675863 -0.09977712 -0.36282095 -0.08332154 0.45129764 0.10573599 0.26260734 -0.22593439 0.13927291 0.34131277 -0.4918833 -0.35103896 -0.41135544 0.040782902 -0.053316116 0.195146 0.0040770397 -0.30179453 0.057966128 0.34905836 0.10478007 -0.31892762 0.7055331 0.09572537 -0.05817595 0.29137623 -0.03368011 0.29996893 -0.3431804 0.17777191 0.61933744 -0.029705549 -0.019923748 -0.29804978 0.1371885 -0.1920709 0.48003215 0.028647691 -0.46560794 0.59928286 0.25324243 0.06799365 -0.24322332 0.02307552 -0.3111837 -0.35304445 0.30345047 0.1967616 -0.41706476 -0.21519308 0.060507577 0.26897132 -0.1945407 -0.14736289 -0.78728724 -0.1681779 0.25348678 -0.42725748 -0.05095573 0.3419249 -0.2657023 0.1783113 -0.11436051 0.5547003 0.4604935 -0.3151845 0.3049021 0.43769372 -0.26656744 -0.28831574 0.22367999 -0.10703743 0.35037926 0.3818522 0.72251624 -0.3882966 0.06148519 -0.21241201 0.0665964 0.3866376 0.17234944 0.08406671 0.14930221 0.18091625 -0.21379966 0.40697095 0.15648031 -0.33258057 -0.45008126 -0.6131082 0.18291633 -0.20666125 0.37363726
후보 0.04563673 0.41389835 -0.04260045 -0.53158087 -0.13266988 0.13854568 0.041959353 -0.42173204 -0.06593525 -0.32432276 -0.101355046 0.45289612 0.09593101 0.2773622 -0.23028366 0.13981903 0.32850382 -0.5097752 -0.3441346 -0.38967094 0.028090231 -0.04978291 0.18540595 0.005502593 -0.2716616 0.04834382 0.3472817 0.08822515 -0.33748186 0.72900605 0.121791765 -0.04971605 0.29077077 -0.02150099 0.31125975 -0.3442562 0.18232942 0.6130983 -0.024480922 -0.007883331 -0.32168996 0.16326152 -0.21325108 0.51120955 0.047001727 -0.476732 0.60462916 0.25201082 0.07544208 -0.22015141 0.03015911 -0.32011455 -0.37976408 0.3026822 0.20963117 -0.44091883 -0.2359304 0.050970204 0.25223377 -0.21349818 -0.17092724 -0.8194139 -0.14770949 0.25630742 -0.40244782 -0.049437072 0.30986544 -0.23703621 0.16787848 -0.15115367 0.58397555 0.49173793 -0.33797657 0.28400537 0.44670734 -0.2961884 -0.2886694 0.21874323 -0.08731235 0.35479814 0.38033506 0.73657066 -0.3954215 0.063924626 -0.21791133 0.08040947 0.4107904 0.19283195 0.08013239 0.19234906 0.20448141 -0.19415367 0.39791128 0.11602759 -0.32209086 -0.4554751 -0.6266723 0.17907454 -0.16507335 0.37970278
것 0.02049171 0.44087473 -0.017602758 -0.49196547 -0.17109554 0.1712901 0.05560188 -0.44866288 -0.15544958 -0.41847512 -0.09216313 0.5090051 0.08577577 0.21303129 -0.22659834 0.12891947 0.32289267 -0.50539243 -0.3597583 -0.45969227 0.006479108 -0.10342532 0.24525493 0.023228817 -0.31513637 0.06485729 0.34329426 0.14686725 -0.28172866 0.763245 0.09284441 -0.011953226 0.3200896 -0.021515783 0.314626 -0.38889256 0.20050003 0.6282876 -0.10297749 0.0036642628 -0.27293882 0.16077161 -0.2090392 0.51275605 0.0046138703 -0.46808994 0.6193461 0.26165012 0.05506586 -0.31703347 0.054288253 -0.36157143 -0.35874668 0.37389088 0.16707467 -0.41972756 -0.20311649 0.0633478 0.28953356 -0.19367579 -0.16488576 -0.82977384 -0.16048552 0.28497463 -0.46122792 -0.056771055 0.36136705 -0.32191503 0.14939056 -0.11291016 0.6303713 0.43761688 -0.28134438 0.35689297 0.4533686 -0.30075878 -0.32058284 0.24012028 -0.11789122 0.37854275 0.4164894 0.7475332 -0.37409997 0.122448064 -0.22610885 0.016077353 0.39399225 0.18402304 0.07222832 0.10888564 0.1556404 -0.22462678 0.425861 0.19311595 -0.318311 -0.43686667 -0.6270995 0.23949021 -0.21942407 0.39783546
~ 0.024261419 0.5079926 -0.04925025 -0.5633326 -0.16289105 0.1625236 0.052428443 -0.42992425 -0.13504598 -0.42837203 -0.066854864 0.54436135 0.08680886 0.26580283 -0.21811204 0.116100885 0.37923446 -0.54350203 -0.38070947 -0.46059096 0.017282447 -0.10400446 0.21864276 0.0015287717 -0.3294187 0.06558313 0.3459675 0.12728046 -0.3130222 0.7947154 0.14444569 -0.03880974 0.33464348 -0.013704319 0.33812827 -0.38150772 0.21968612 0.69947094 -0.07149204 0.012921226 -0.36084858 0.16849172 -0.24293116 0.54936254 0.05135297 -0.45379943 0.6748238 0.25325263 0.059461653 -0.3154873 0.040162258 -0.3995544 -0.37338132 0.39294922 0.21505807 -0.4343522 -0.24959317 0.08430305 0.28173602 -0.20967363 -0.14612861 -0.90443873 -0.16484644 0.3218259 -0.5024493 -0.09703923 0.35252005 -0.2985387 0.15340428 -0.10737348 0.6577477 0.5040243 -0.32505596 0.3488304 0.47616965 -0.34346935 -0.32957125 0.21820228 -0.13443947 0.42356592 0.41920757 0.7780835 -0.40355283 0.09641526 -0.24672888 0.06034216 0.45629114 0.1842972 0.10533792 0.13324766 0.17744982 -0.21831815 0.47773546 0.20587793 -0.35274804 -0.47845557 -0.69171524 0.25618938 -0.22013643 0.44144946
사람 0.042019177 0.42931512 -0.016643832 -0.45866966 -0.16349243 0.17774686 0.06466052 -0.44027227 -0.18028362 -0.42315528 -0.097251914 0.49150407 0.10064106 0.15411972 -0.2207593 0.13592054 0.3241479 -0.4672212 -0.34076354 -0.46606243 -0.0022976985 -0.115786046 0.25202754 0.034970608 -0.29281524 0.057605952 0.3241547 0.13380638 -0.26510978 0.71491027 0.09900544 -0.00617046 0.3289614 -0.011171318 0.28215894 -0.39542115 0.20398185 0.6176097 -0.14587776 0.018881407 -0.24385528 0.16152497 -0.20087408 0.4993443 0.0022396496 -0.46557006 0.5891866 0.2678526 0.043882336 -0.3490361 0.029106805 -0.37027606 -0.33795932 0.36922833 0.15069395 -0.39949724 -0.17686427 0.07930757 0.28097028 -0.16578798 -0.14887688 -0.7726618 -0.16250102 0.27189985 -0.4434598 -0.046362888 0.34842554 -0.33260593 0.121722005 -0.097423464 0.5926159 0.41464087 -0.26603895 0.36556584 0.44729918 -0.28114927 -0.3039141 0.24614836 -0.13230772 0.36569887 0.42466822 0.71955764 -0.32816538 0.1305622 -0.18199886 -0.018931553 0.35449305 0.14873606 0.07048215 0.09151491 0.114809774 -0.23885162 0.41114286 0.19615541 -0.32674286 -0.4150518 -0.58051556 0.26482627 -0.2342279 0.40547246
김동연 0.03334209 0.47032204 -0.044205416 -0.53316075 -0.1582509 0.1610187 0.043152448 -0.42067912 -0.1197364 -0.3954684 -0.08302443 0.5033648 0.10381143 0.25135764 -0.21727677 0.124790914 0.35041204 -0.5094438 -0.35197613 -0.43491852 0.0131849 -0.08900548 0.21803494 -0.0003095038 -0.32207352 0.06017678 0.34248942 0.1273817 -0.31520572 0.75077546 0.11744139 -0.04301169 0.30927607 -0.020739945 0.3153608 -0.35454342 0.20725398 0.6531475 -0.066373706 0.0117644835 -0.31769797 0.16695066 -0.21579163 0.5221788 0.047507916 -0.46794444 0.63978904 0.25633454 0.062171914 -0.29045185 0.03384909 -0.34910575 -0.33477393 0.3531904 0.20422666 -0.42622715 -0.22404192 0.062345803 0.2724649 -0.20769916 -0.14927633 -0.8411262 -0.16247064 0.29377455 -0.46406686 -0.07896621 0.32700586 -0.29770106 0.16262226 -0.10449543 0.61792207 0.46697816 -0.3205256 0.33297402 0.447782 -0.31093904 -0.30803347 0.23683698 -0.12854995 0.38985106 0.40345547 0.73389614 -0.38419425 0.089939445 -0.23096728 0.040084723 0.3984525 0.1788844 0.08271852 0.11673847 0.16724546 -0.21818015 0.42481098 0.19115658 -0.3368609 -0.46367818 -0.64050466 0.22301254 -0.20719606 0.4068534
안철수 0.04249863 0.44341618 -0.027201336 -0.506212 -0.15547246 0.16445757 0.0503839 -0.42475846 -0.11470031 -0.3975626 -0.077991575 0.48688152 0.11420854 0.22587104 -0.19324729 0.12778623 0.35030594 -0.47414827 -0.34958014 -0.42918837 0.007396285 -0.082894586 0.21614443 0.003282304 -0.2969331 0.050568677 0.32968602 0.08818733 -0.2954433 0.73542666 0.13118576 -0.033109717 0.30356276 -0.014437145 0.2954536 -0.33757755 0.196627 0.63707143 -0.07035803 0.015675554 -0.30400178 0.16073947 -0.20860665 0.50397825 0.046114143 -0.441339 0.62508327 0.24688339 0.054438736 -0.26428246 0.020814154 -0.36246404 -0.32645258 0.34073734 0.20681182 -0.4331276 -0.21075848 0.06740561 0.26260436 -0.18562 -0.14891423 -0.7956765 -0.16505095 0.26368502 -0.43269607 -0.07996518 0.31451976 -0.28518867 0.1522864 -0.12938653 0.5971568 0.47249845 -0.31564364 0.31319982 0.44727314 -0.2987039 -0.30386937 0.20829791 -0.10814752 0.37769482 0.3929277 0.7213764 -0.38508573 0.10512853 -0.20501713 0.034765657 0.38325837 0.17416617 0.09495427 0.12792185 0.16732234 -0.21098688 0.421258 0.15933271 -0.32270417 -0.43365684 -0.63022923 0.21639079 -0.19955614 0.38461125
교체 -0.044241387 0.61529106 -0.3755586 -1.2765144 0.08365365 -0.14570948 -0.16873664 -0.05186806 0.5520567 0.21864663 0.10668686 0.53701437 -0.0574884 1.1009498 -0.30512008 -0.06571868 0.3610133 -0.89917797 -0.54114664 0.13739027 -0.0631186 0.24003646 -0.23805562 -0.2813264 -0.4816704 -0.0799829 0.15021807 0.26072782 -0.5671265 0.9874309 0.054067843 -0.35342884 0.03258481 -0.274031 0.8208876 -0.033192225 0.27557465 0.6014224 0.68820786 -0.37458217 -0.7553998 -0.0533326 -0.21547253 0.35864627 0.15740722 -0.04822702 0.8661505 0.041727 0.0022830125 0.3615657 0.2567199 0.12891862 -0.1404315 0.24524912 0.5211655 -0.26613897 -0.79155755 -0.30809832 0.1517167 -0.80394524 -0.18913065 -1.3065364 0.34378543 0.14583363 -0.3663506 -0.27666938 0.344947 0.30625954 0.48430902 0.0024665385 0.7614473 0.27782986 -0.57422173 -0.049858015 0.1910301 -0.6885484 -0.53209645 -0.09170696 -0.02010213 0.51622796 -0.14509931 0.4522723 -0.82786584 -0.4385049 -0.88434553 0.63127095 0.9234632 0.62945783 0.1475084 0.72794735 0.69074696 0.31154913 0.6202366 -0.0146793155 -0.30169037 -0.75426173 -0.91691345 -0.116019465 0.23269446 0.28369817
에서 0.04093105 0.52460545 -0.03299525 -0.55666435 -0.18745878 0.20609948 0.07126192 -0.50073785 -0.16148418 -0.4836297 -0.10785705 0.574032 0.11035684 0.22207592 -0.22727817 0.1432416 0.39008957 -0.53373104 -0.3860055 -0.5167102 0.018172277 -0.13467383 0.27095664 0.023044914 -0.32485044 0.06244031 0.36929658 0.13420132 -0.32494 0.83215797 0.14755306 -0.0045681396 0.37262195 0.0025054184 0.32907343 -0.41199118 0.23804933 0.7274347 -0.12821136 0.024660248 -0.29777238 0.18301508 -0.23386766 0.56492406 0.040221676 -0.52240044 0.7009826 0.27238137 0.056121916 -0.36137283 0.028556868 -0.42852655 -0.36428595 0.4117585 0.21170321 -0.45449278 -0.21962075 0.09514765 0.31567538 -0.20472552 -0.17896537 -0.8986141 -0.18809 0.32071683 -0.51197225 -0.09539089 0.36701858 -0.35924765 0.15820293 -0.12866443 0.67771953 0.5221774 -0.32794717 0.39491668 0.50597817 -0.328128 -0.33743727 0.27119252 -0.14734931 0.41649643 0.47037134 0.8165001 -0.41157177 0.13089928 -0.21005854 0.013546502 0.42585176 0.17860213 0.09596618 0.10683876 0.16312918 -0.24586917 0.48331892 0.23419705 -0.3636953 -0.49512973 -0.6868887 0.29218814 -0.26350626 0.4585543
만 0.034581803 0.49808308 -0.0150696775 -0.5013683 -0.18492733 0.19552378 0.06001526 -0.4714241 -0.1715443 -0.46786126 -0.09526368 0.54683983 0.10239993 0.20105886 -0.2247298 0.12757629 0.36371922 -0.526625 -0.3769097 -0.5151713 0.018480157 -0.14080186 0.27162838 0.027450498 -0.31100434 0.05345309 0.36562082 0.12737045 -0.29945147 0.78721786 0.1347921 -0.0017421914 0.35070878 0.0076651415 0.31055316 -0.4007505 0.21473101 0.7006334 -0.14292097 0.03481012 -0.29722384 0.17762935 -0.23652603 0.5374055 0.031959828 -0.49492753 0.6593809 0.27036697 0.06660074 -0.37435907 0.017225984 -0.41398883 -0.37028277 0.40978682 0.18788065 -0.42700425 -0.20831789 0.09358866 0.30278572 -0.17845213 -0.15987472 -0.85381836 -0.18567565 0.32231876 -0.49755707 -0.07344787 0.36815146 -0.356404 0.1308988 -0.11848468 0.6494735 0.48808298 -0.30251348 0.38664198 0.48964134 -0.31199482 -0.32020566 0.2676375 -0.13749722 0.4019279 0.473731 0.79475963 -0.38164014 0.14273131 -0.20509401 -0.007310953 0.39623645 0.1565516 0.08532586 0.08980476 0.13580935 -0.25459585 0.45810896 0.2222442 -0.36545783 -0.47220758 -0.66362643 0.27871314 -0.2553477 0.44959506
나오다 0.035847846 0.4633149 -0.010447917 -0.47855738 -0.18246093 0.18052769 0.060413834 -0.44191483 -0.17144844 -0.4509333 -0.09044703 0.51411843 0.10303059 0.18312722 -0.21723486 0.123898216 0.35874286 -0.5060708 -0.3651114 -0.4954922 0.001366053 -0.1227399 0.26795095 0.020441528 -0.29101014 0.05286475 0.3522898 0.113705896 -0.29580972 0.76718277 0.14167449 0.002461501 0.336837 -0.005653098 0.2817351 -0.39084056 0.21957299 0.6586809 -0.1410304 0.04124592 -0.2760284 0.17923114 -0.21406813 0.53036094 0.026291145 -0.47422764 0.6264006 0.2652169 0.041375462 -0.3557508 0.025954934 -0.39749426 -0.3473696 0.40224907 0.17873952 -0.41814706 -0.19003537 0.09733473 0.29448014 -0.16291545 -0.15423001 -0.8031278 -0.19185142 0.3002787 -0.4834793 -0.058927402 0.33681387 -0.35228333 0.12400097 -0.10236348 0.61378074 0.45783484 -0.29019785 0.38204405 0.46462914 -0.3033475 -0.30366528 0.24652201 -0.12730293 0.388672 0.45106426 0.7416816 -0.35789907 0.12960316 -0.18856601 -0.0037212514 0.37340066 0.13955432 0.09329264 0.08421092 0.12454009 -0.23839474 0.42672655 0.21869192 -0.34385645 -0.43265048 -0.6347485 0.2718456 -0.24672951 0.41359106
당 0.044272162 0.47635522 -0.044584967 -0.51856 -0.18411979 0.19567373 0.05097087 -0.46200335 -0.1430618 -0.44674826 -0.10783599 0.5361797 0.08594255 0.20471437 -0.20110953 0.15789638 0.3559529 -0.4995781 -0.3656206 -0.5006079 0.0014130905 -0.13712648 0.22061948 0.0099911 -0.3008207 0.042136706 0.33467647 0.08985409 -0.2742866 0.77954763 0.13838589 0.00018558122 0.35209727 0.023473898 0.30781657 -0.38665608 0.19218092 0.69673824 -0.10588208 0.030579638 -0.25924253 0.18259613 -0.25767496 0.53188986 0.037393313 -0.48673525 0.64763355 0.24540871 0.08810341 -0.31603476 0.0074040573 -0.40040684 -0.35081774 0.36198816 0.21976705 -0.4341775 -0.20916174 0.09673327 0.27009955 -0.18542266 -0.17819987 -0.8428513 -0.18042089 0.30987322 -0.45457858 -0.071378 0.34076682 -0.3279069 0.12720646 -0.15414205 0.6430262 0.50427145 -0.3198732 0.35997376 0.47460943 -0.32508686 -0.29718977 0.22964698 -0.118361995 0.38652384 0.4520814 0.7635384 -0.4009012 0.13316688 -0.1873657 0.0035492266 0.38016495 0.17619082 0.089473434 0.1173802 0.16667075 -0.21623848 0.4564178 0.18257368 -0.32149512 -0.47829938 -0.6376303 0.27115855 -0.23289245 0.43857214
말 0.026441017 0.45401457 0.0026755023 -0.4651972 -0.17477068 0.18020807 0.06235767 -0.46007463 -0.20974141 -0.4767496 -0.09912176 0.5187251 0.08861114 0.1510473 -0.22664121 0.12805633 0.34743455 -0.5063736 -0.34719262 -0.5186471 0.0015017159 -0.14771582 0.28205636 0.035963625 -0.3052218 0.07508279 0.34989288 0.13753793 -0.2713772 0.7606514 0.11064636 0.008291463 0.34325045 0.010047957 0.2983273 -0.41591576 0.20646267 0.64691895 -0.1688961 0.033573817 -0.26868284 0.17073591 -0.20377561 0.52694905 0.017792895 -0.4829317 0.6138666 0.2810871 0.054357294 -0.39731887 0.02760969 -0.399294 -0.35447058 0.40115508 0.1540238 -0.40284744 -0.17135653 0.099884875 0.2907706 -0.14581156 -0.14251058 -0.8157163 -0.18927418 0.31573045 -0.48074222 -0.046876196 0.3595564 -0.3743724 0.1134694 -0.101144046 0.6190416 0.4363059 -0.27037928 0.39310336 0.4692672 -0.28324303 -0.31352496 0.26855677 -0.13668649 0.37989914 0.4661906 0.7504479 -0.33524588 0.14002797 -0.19339481 -0.039208315 0.3638761 0.14175351 0.07458239 0.0683041 0.11756075 -0.25182304 0.4227931 0.24577986 -0.34215063 -0.43915638 -0.61440617 0.29312372 -0.2713142 0.42934263
민주당 0.026978832 0.47920856 -0.033396054 -0.54261476 -0.17061312 0.16428742 0.051975455 -0.43680432 -0.11873088 -0.4064556 -0.07983805 0.52509874 0.09062382 0.23278551 -0.2199723 0.13659294 0.34548274 -0.5139244 -0.37164605 -0.4610979 0.008421443 -0.10385902 0.2164352 0.006975444 -0.31140915 0.05539124 0.33696282 0.111772746 -0.31214237 0.78310496 0.13878441 -0.01474665 0.32847732 -0.010347764 0.3228665 -0.36681122 0.20380335 0.66278553 -0.07127767 0.004624026 -0.31080803 0.15924805 -0.23133951 0.52454925 0.032518517 -0.47689995 0.6588117 0.25240487 0.06537669 -0.29451922 0.044644065 -0.36501554 -0.35207126 0.36550692 0.20976594 -0.43023777 -0.22641473 0.06764439 0.278261 -0.20538487 -0.15462139 -0.8563568 -0.16517802 0.3016476 -0.45948705 -0.073862456 0.3442636 -0.29762897 0.14486103 -0.123633504 0.63213426 0.47765726 -0.3168096 0.33329403 0.4613862 -0.32236043 -0.3156742 0.22903095 -0.112559564 0.39164937 0.41591543 0.75927466 -0.3917058 0.10203618 -0.2320093 0.045342203 0.4125837 0.19256867 0.08099973 0.12640555 0.17974903 -0.20745414 0.45055878 0.19061083 -0.32804602 -0.4682814 -0.6522256 0.24291655 -0.21008103 0.42384487
같다 0.02613203 0.4680287 -0.01964656 -0.523298 -0.16833043 0.16181828 0.04664523 -0.4417026 -0.13477892 -0.42863417 -0.09687059 0.52618116 0.09171718 0.21892397 -0.23171198 0.13224763 0.35213983 -0.53418803 -0.37469962 -0.4794305 0.008849682 -0.11289456 0.23988512 0.0132954065 -0.31628668 0.063429795 0.35127643 0.13962322 -0.30628312 0.7868554 0.12839082 -0.018840622 0.33788276 -0.004383283 0.32766393 -0.38622737 0.21530277 0.6619933 -0.10598832 0.01046911 -0.3034449 0.17011207 -0.22639506 0.5409318 0.03466318 -0.4827014 0.6370196 0.25815958 0.0602891 -0.32848227 0.04117345 -0.38002902 -0.35826597 0.3910754 0.19263728 -0.42543253 -0.21141417 0.08832682 0.2898003 -0.18620327 -0.15390477 -0.86207384 -0.16545284 0.29094368 -0.48407057 -0.06055849 0.3683443 -0.33345377 0.1476465 -0.115036674 0.6328919 0.46905807 -0.31251055 0.3593619 0.47065368 -0.3112618 -0.3243749 0.23801859 -0.12761123 0.3921907 0.445867 0.75525546 -0.37360686 0.1132537 -0.222209 0.025385365 0.40258408 0.16374852 0.084142156 0.11935428 0.16124901 -0.2305549 0.4527405 0.199389 -0.36400998 -0.45154265 -0.65489995 0.25960493 -0.23050614 0.4291135
나라 0.0433561 0.48220176 -0.022971844 -0.52593356 -0.15873621 0.16955146 0.07731789 -0.45894796 -0.15590149 -0.41869965 -0.100461684 0.53451955 0.09245162 0.2121273 -0.22151266 0.1315444 0.3511033 -0.5148918 -0.3630292 -0.47497606 7.399217e-05 -0.113612406 0.24429283 0.027741926 -0.30677152 0.051180404 0.35439554 0.14011988 -0.29785767 0.7859328 0.11440513 -0.017345833 0.32507 -0.0017093186 0.32256153 -0.39219996 0.20826764 0.6576401 -0.11673623 0.0007905783 -0.2867487 0.1676951 -0.22730261 0.52095586 0.018281894 -0.4889658 0.6414406 0.27173054 0.05519935 -0.32307148 0.065532215 -0.38089702 -0.3640366 0.38769603 0.18358171 -0.4332007 -0.21440107 0.079295285 0.28377834 -0.1817816 -0.16077887 -0.8614341 -0.16011314 0.2848311 -0.46337327 -0.07066641 0.366313 -0.32557118 0.15165639 -0.11836298 0.6341976 0.45905957 -0.30273125 0.35271955 0.47805223 -0.29876888 -0.30992666 0.24612951 -0.13315971 0.4061072 0.42728147 0.7500375 -0.3817883 0.124865435 -0.23201859 0.037757996 0.38891587 0.17518435 0.08360794 0.1258642 0.15099953 -0.22776379 0.4278209 0.19785938 -0.3434212 -0.45782122 -0.6313245 0.25149277 -0.23244403 0.41687799
적 0.0771918 0.55228317 -0.017135851 -0.60482633 -0.15424062 0.16851683 0.12714617 -0.53226244 -0.16045928 -0.4478237 -0.15056124 0.5925347 0.14036897 0.28335825 -0.23013176 0.16594094 0.38011265 -0.5628322 -0.39200142 -0.5038977 -0.013670609 -0.0839015 0.24507013 0.059800852 -0.36059946 0.074651465 0.35327154 0.16024482 -0.36045942 0.901546 0.1400311 -0.03605763 0.39350474 -0.0019209078 0.3509031 -0.41260073 0.19817454 0.6835453 -0.1315175 0.022489266 -0.30331084 0.20215192 -0.28191793 0.57174957 0.026176076 -0.60093045 0.7438335 0.30978888 0.075712 -0.38243687 0.12643224 -0.42453715 -0.4312607 0.45102397 0.20125875 -0.49547333 -0.24930252 0.055424687 0.31017196 -0.24245684 -0.22411156 -0.9223287 -0.18439457 0.26679796 -0.44946682 -0.09919725 0.44525683 -0.3710568 0.18546128 -0.15509851 0.74015605 0.52589583 -0.30779096 0.361311 0.5543557 -0.3478688 -0.36796936 0.29522786 -0.16019419 0.41790628 0.48796222 0.8086973 -0.42414132 0.1998348 -0.31673253 0.08190876 0.41643417 0.1761346 0.072353855 0.17135613 0.15703143 -0.27135816 0.4649409 0.19434682 -0.37234965 -0.46987596 -0.69447553 0.29741365 -0.25959307 0.43064904
아 0.012441041 0.52253276 -0.03687749 -0.5647917 -0.15709808 0.13674615 0.039267696 -0.38608402 -0.12058498 -0.40656897 -0.049906682 0.5278371 0.08834401 0.25206998 -0.22488321 0.13434754 0.3674357 -0.5342239 -0.4084176 -0.45366484 0.015005174 -0.098286465 0.22007838 0.007248533 -0.3356365 0.071471296 0.32640368 0.11155882 -0.28773564 0.80328923 0.14453417 -0.0216189 0.34606546 -0.0125666475 0.32734475 -0.3683721 0.1953489 0.6995266 -0.06599591 0.032105744 -0.36714035 0.18321937 -0.24183145 0.52981734 0.04252085 -0.4269754 0.6874719 0.26794457 0.062254038 -0.34185347 0.042106558 -0.39840215 -0.35894743 0.42334077 0.20491275 -0.4315581 -0.26079607 0.0762461 0.29600352 -0.21128693 -0.14769454 -0.88052744 -0.14662886 0.3526553 -0.48923746 -0.10169876 0.34953734 -0.32454914 0.1308889 -0.09556595 0.64284605 0.4902522 -0.33152193 0.34894538 0.45376515 -0.33522448 -0.3442596 0.21782784 -0.12618269 0.42541093 0.42171973 0.76146746 -0.41256797 0.07433367 -0.27462992 0.038236495 0.4385429 0.17549086 0.09773108 0.10487928 0.1790481 -0.19480039 0.48113737 0.22156875 -0.35929066 -0.49752778 -0.6913287 0.22830799 -0.22915672 0.4549972
고 0.034358464 0.52926195 -0.031472787 -0.56947833 -0.20447272 0.21810372 0.07086043 -0.5124803 -0.18071748 -0.5117763 -0.097732596 0.5883873 0.11125109 0.21013612 -0.2436627 0.15921482 0.41090178 -0.5844126 -0.41219044 -0.54387325 -0.0016192707 -0.15363765 0.28714824 0.025911963 -0.35024863 0.07278372 0.38903216 0.15059723 -0.32667193 0.87117743 0.14447781 -0.0008765508 0.39370617 -0.0051350384 0.343369 -0.4408109 0.2342708 0.76827884 -0.1428373 0.015269484 -0.31032214 0.19509123 -0.2478111 0.5936876 0.026296567 -0.525939 0.71408373 0.30025408 0.07068623 -0.39375955 0.034574557 -0.4566149 -0.39964953 0.45379555 0.20452954 -0.47327703 -0.23134565 0.10042547 0.3221775 -0.20095855 -0.18660432 -0.9350655 -0.20988578 0.34415132 -0.54009944 -0.069236174 0.39885804 -0.38602945 0.13401465 -0.13064045 0.7139949 0.5219507 -0.3117483 0.413001 0.53841645 -0.3561107 -0.35500917 0.28465703 -0.15249403 0.43905503 0.50620955 0.84658885 -0.40849134 0.13616726 -0.23994984 -0.008409022 0.43714204 0.17243434 0.089966014 0.082206465 0.15557116 -0.25376734 0.49481416 0.26199427 -0.37118816 -0.4969374 -0.71200705 0.3192087 -0.2875341 0.49239573
하고 0.02389348 0.5038974 -0.05362908 -0.5778353 -0.16463192 0.16617458 0.049414814 -0.4688044 -0.11161468 -0.42900905 -0.095138244 0.5615181 0.09836786 0.26872075 -0.23295236 0.138692 0.36552387 -0.5755677 -0.4036572 -0.484754 0.008687163 -0.11425098 0.21318418 0.002317436 -0.33863 0.07213012 0.37218794 0.13092142 -0.33311102 0.824973 0.13264158 -0.026255678 0.34247753 -0.014934032 0.35559535 -0.39705047 0.22093132 0.7094754 -0.07538605 0.0063512623 -0.35021386 0.16610843 -0.24741323 0.5607587 0.026372073 -0.49145368 0.69205743 0.26405743 0.07848652 -0.3193397 0.050530944 -0.3874629 -0.37268034 0.40915766 0.22487567 -0.4472521 -0.24950436 0.07474128 0.29439554 -0.23413987 -0.16896679 -0.9342946 -0.16253342 0.30925748 -0.4934143 -0.08559248 0.38301712 -0.31398535 0.155521 -0.14736907 0.67971456 0.5073179 -0.3445063 0.34533143 0.48963568 -0.34996083 -0.34136552 0.25129864 -0.12638971 0.42724648 0.44886664 0.8027383 -0.4191629 0.10756815 -0.26924682 0.054233983 0.46063876 0.18820016 0.094836146 0.14308792 0.18139529 -0.22080202 0.4804622 0.19185723 -0.35851008 -0.5017607 -0.7017183 0.2470723 -0.21896386 0.4478382
못 0.027744958 0.49011254 -0.018924214 -0.5380265 -0.18284759 0.18042414 0.05396411 -0.45531303 -0.1474258 -0.45851615 -0.10152241 0.5460026 0.08916946 0.2161454 -0.23497811 0.13568206 0.34788284 -0.53461397 -0.37951037 -0.48756495 0.0100588 -0.11702033 0.25600034 0.017308451 -0.32122654 0.06103212 0.3525421 0.1346124 -0.31537792 0.79921365 0.12234219 -0.012831156 0.3346696 -0.0053530093 0.32999668 -0.39329815 0.22033541 0.68250847 -0.10497686 0.0119749755 -0.31879863 0.1663478 -0.2335587 0.541283 0.027257534 -0.47715104 0.66471756 0.25807133 0.048036356 -0.34389865 0.039548725 -0.3895913 -0.35966316 0.4104895 0.19691187 -0.4238328 -0.22467633 0.077175036 0.29696232 -0.18692015 -0.15522493 -0.8725206 -0.1721826 0.30334967 -0.49198315 -0.0688994 0.3765561 -0.33495504 0.13979179 -0.112930246 0.65141636 0.46521667 -0.32314742 0.36229774 0.4889325 -0.32652006 -0.31751326 0.24684215 -0.13463406 0.4153914 0.43999234 0.7839978 -0.3793138 0.119872324 -0.22998944 0.025010148 0.41597188 0.17133686 0.10318556 0.1112089 0.14855033 -0.23554547 0.45177206 0.21030146 -0.35289213 -0.46422735 -0.6682481 0.26393017 -0.23325992 0.4390008
안 0.03358932 0.4764183 -0.019684445 -0.49234554 -0.17120485 0.17492506 0.047789652 -0.4436604 -0.15653244 -0.46105635 -0.08281666 0.53015006 0.104269825 0.19047001 -0.22475569 0.12646832 0.34933564 -0.50517166 -0.37227815 -0.49315494 0.010350992 -0.13120967 0.25979948 0.024492113 -0.31538928 0.052699726 0.3453762 0.11955282 -0.2917619 0.76763576 0.13374217 -0.00085375895 0.33277386 -0.0007660293 0.30246305 -0.39289954 0.22001012 0.6697925 -0.1185183 0.03925612 -0.29759464 0.1730867 -0.21735719 0.52237284 0.039988395 -0.4729273 0.64183044 0.25725257 0.051628053 -0.3550458 0.02234716 -0.40183726 -0.3464088 0.39474818 0.18786559 -0.4095697 -0.20226437 0.094762124 0.28731656 -0.16758087 -0.1408613 -0.83284533 -0.18004775 0.30616775 -0.48566523 -0.079975255 0.3572515 -0.34555492 0.1406215 -0.11608122 0.6343957 0.46040145 -0.30129048 0.36550477 0.47558612 -0.3143506 -0.3152661 0.2434429 -0.12516092 0.39156762 0.43995196 0.7612053 -0.36292177 0.13120589 -0.1956867 0.00073057134 0.3903183 0.15635465 0.09814146 0.094359614 0.13481328 -0.23679464 0.44401124 0.2153527 -0.35736284 -0.45210245 -0.6433928 0.2585966 -0.24220878 0.4246704
가다 0.021083606 0.49858618 -0.047267944 -0.56312 -0.14999817 0.14882195 0.035769694 -0.41247836 -0.11034849 -0.40576133 -0.07465523 0.5283416 0.09851127 0.28601462 -0.21922702 0.12071715 0.3688272 -0.55647546 -0.38134265 -0.45123354 0.012296818 -0.101726376 0.21118979 -0.011045443 -0.32581615 0.059094306 0.3514376 0.12551992 -0.32163304 0.8002641 0.14767258 -0.034662567 0.3244113 -0.012404059 0.33527476 -0.35979903 0.21784234 0.6851189 -0.047175404 0.014058366 -0.36955962 0.16596103 -0.23159525 0.5452661 0.042296827 -0.44445255 0.6776474 0.25236967 0.06261268 -0.30291724 0.04238521 -0.37973595 -0.35214663 0.39296883 0.22657791 -0.4379113 -0.25921836 0.06851681 0.27042055 -0.21380943 -0.14938876 -0.89232904 -0.14868475 0.3092438 -0.48636225 -0.095874764 0.3466207 -0.28864276 0.16409555 -0.12845011 0.6529074 0.50305617 -0.32257813 0.33705264 0.45087886 -0.34594867 -0.33897868 0.21644674 -0.11965001 0.41084772 0.4183507 0.7647488 -0.41299245 0.090063974 -0.27835366 0.05081892 0.45532537 0.19993761 0.101393715 0.146207 0.17865936 -0.19286875 0.46531317 0.19221814 -0.33943084 -0.470949 -0.69426286 0.2223359 -0.19708638 0.4252071
대선 0.05480556 0.48874655 -0.041179176 -0.5678994 -0.17731419 0.20033008 0.05593273 -0.49392748 -0.15229827 -0.44832343 -0.10065998 0.5341321 0.12032453 0.23097381 -0.24569042 0.16347852 0.3817792 -0.53479993 -0.37970808 -0.50496304 0.028206874 -0.11065421 0.25684088 0.030673323 -0.33170855 0.07033331 0.3758947 0.113415144 -0.34581003 0.8154677 0.13960671 -0.02752485 0.3500273 -0.0024594457 0.30926737 -0.41871595 0.20922507 0.7089236 -0.094894595 0.013526108 -0.29045346 0.1793561 -0.23224057 0.5545759 0.03104556 -0.5394907 0.6717377 0.28260463 0.07001019 -0.31784177 0.026512029 -0.4133848 -0.390163 0.3841852 0.2179613 -0.45114854 -0.2188056 0.07512576 0.3101406 -0.20389466 -0.16517222 -0.8979711 -0.18181367 0.296743 -0.4917568 -0.07377921 0.36374852 -0.3290375 0.16970967 -0.10891413 0.63985276 0.5211636 -0.33932197 0.36351204 0.4978373 -0.2962795 -0.3089001 0.25838584 -0.1341006 0.39383206 0.4385711 0.80537516 -0.3991708 0.12157693 -0.2039988 0.042334046 0.4214593 0.17799462 0.08052702 0.12937264 0.1890703 -0.25097552 0.4725083 0.20080958 -0.36764833 -0.48703519 -0.6679175 0.24904141 -0.2546059 0.44830248
그 0.032961037 0.4904824 -0.014310271 -0.5118144 -0.1788411 0.18942565 0.06621283 -0.47620237 -0.17776784 -0.4790333 -0.09050182 0.53774494 0.10099578 0.18158564 -0.23211323 0.13623254 0.3619008 -0.5131082 -0.3810963 -0.5214898 0.005995256 -0.13540916 0.27426505 0.029614689 -0.3202991 0.07236272 0.36052167 0.12825505 -0.29799062 0.79063916 0.13714004 -0.0055919243 0.35840213 0.0164974 0.303495 -0.4046154 0.22284472 0.70228064 -0.13895059 0.037971966 -0.30075 0.18234816 -0.23388757 0.5564735 0.023674214 -0.50210565 0.6648032 0.2748616 0.06318068 -0.37649995 0.032225013 -0.4214364 -0.3697934 0.41044554 0.1921937 -0.43652502 -0.20276788 0.09523274 0.3006876 -0.173886 -0.16782503 -0.85579497 -0.19466172 0.32740682 -0.49030042 -0.06523347 0.3776034 -0.36680683 0.14009753 -0.10479387 0.65166444 0.48807934 -0.30213413 0.39075828 0.48814356 -0.31107357 -0.322084 0.25546324 -0.13652569 0.40426594 0.48278013 0.78875214 -0.37364691 0.14762785 -0.19800265 -0.011901149 0.40203947 0.1522681 0.08819855 0.08437318 0.12930854 -0.25836962 0.46685237 0.22641249 -0.35838646 -0.4689613 -0.6488572 0.27943298 -0.26443896 0.45590237
나 0.04767008 0.5038873 -0.022978656 -0.49358395 -0.19660768 0.1899317 0.058512446 -0.4794578 -0.1976535 -0.5026459 -0.0897274 0.56035566 0.10056992 0.17166801 -0.22724324 0.14064412 0.36963153 -0.5085365 -0.38740763 -0.55542165 0.012501123 -0.16091554 0.29724717 0.024408642 -0.3115734 0.061336912 0.3722169 0.12987228 -0.30280837 0.78432333 0.15540262 0.0033337274 0.3675804 0.026025971 0.29464227 -0.41265324 0.22739537 0.7177775 -0.16390732 0.059229486 -0.3117511 0.18818413 -0.24351232 0.55068505 0.030071894 -0.49958116 0.6704006 0.28195676 0.06131318 -0.40516132 0.014990339 -0.43041632 -0.37094843 0.42115006 0.18755312 -0.43437514 -0.1944801 0.11098462 0.3054618 -0.16632661 -0.1455425 -0.85774076 -0.20225541 0.33150437 -0.50688994 -0.060148284 0.3742352 -0.37887862 0.12438893 -0.10490989 0.6591188 0.49245882 -0.28905666 0.41389525 0.5024208 -0.32098258 -0.32720873 0.26449603 -0.14194965 0.40521327 0.4899739 0.79284483 -0.36632872 0.1515172 -0.186258 -0.023987463 0.39131966 0.14176436 0.08816929 0.06101978 0.104136065 -0.27230325 0.46977296 0.2535584 -0.3710069 -0.4563259 -0.66125983 0.2942993 -0.2872105 0.4590054
지지 0.030175494 0.41961452 -0.031348586 -0.49409243 -0.15086903 0.1688087 0.06531726 -0.41776082 -0.13175632 -0.39034373 -0.08303222 0.47557116 0.09274412 0.19549301 -0.21566372 0.13747144 0.33137017 -0.4707001 -0.3381669 -0.45336843 0.003855736 -0.09719698 0.20147082 0.014998946 -0.28527182 0.0616866 0.3265007 0.10807723 -0.27347356 0.7069012 0.1034112 -0.021075763 0.31383327 -0.008420051 0.28481403 -0.36100775 0.18092315 0.6121857 -0.09509398 0.015734125 -0.2782866 0.15266867 -0.18756779 0.4810769 0.023267977 -0.4397572 0.57764775 0.2447949 0.060697284 -0.291157 0.024513228 -0.34058678 -0.32137302 0.3486883 0.171415 -0.38290423 -0.18537596 0.063359275 0.2652684 -0.16188988 -0.1402037 -0.7507886 -0.16832975 0.25489557 -0.41099837 -0.05525694 0.34097993 -0.31072238 0.13654508 -0.12123032 0.56838673 0.4415181 -0.28299448 0.32560733 0.43131983 -0.28158212 -0.2985789 0.22375105 -0.12607628 0.3377779 0.40147877 0.7038135 -0.36302158 0.11021219 -0.21189936 0.0062472923 0.36472195 0.14700493 0.054950945 0.10715182 0.13436297 -0.21075696 0.39855042 0.16112976 -0.3278815 -0.40560582 -0.5864473 0.2314024 -0.21099809 0.3970282
명 0.086056635 0.54624754 -0.07979968 -0.44088146 -0.08476388 0.07844698 -0.052018743 -0.39439023 -0.21620934 -0.52864456 0.011458603 0.50343555 0.076903276 0.24038675 -0.25000513 0.15688778 0.35090378 -0.44166887 -0.45954174 -0.6199412 0.060452607 -0.23450647 0.24845484 0.01725861 -0.34194335 -0.0009839103 0.4250094 0.04714329 -0.24575011 0.7450046 0.19116426 -0.023947485 0.3519948 0.07305969 0.25245368 -0.45590147 0.30646923 0.6880373 -0.04887784 0.15703113 -0.41983414 0.18813382 -0.3028228 0.5409192 0.070791565 -0.43568304 0.7294777 0.2925262 0.096486166 -0.48096862 0.04416279 -0.40345147 -0.4234722 0.49707398 0.23614433 -0.39485586 -0.23853333 0.112122275 0.2560272 -0.22620966 -0.07388406 -0.8987166 -0.16777518 0.44688475 -0.49936125 -0.1252297 0.39756498 -0.35450104 0.19726099 -0.09872295 0.7182359 0.5640777 -0.31509835 0.3802257 0.4945494 -0.28021082 -0.38194466 0.24471645 -0.09925638 0.41786122 0.5240145 0.79824775 -0.3390491 0.16111325 -0.25981495 -0.08642076 0.45789552 0.17888881 0.06803738 0.06662119 0.052315865 -0.21765448 0.448685 0.2945874 -0.4279592 -0.5317369 -0.7161426 0.18024355 -0.2835233 0.53691715
들다 0.03325588 0.49409038 -0.02404817 -0.49522913 -0.191673 0.19223887 0.0779988 -0.47013155 -0.1855772 -0.48764753 -0.096891075 0.54815835 0.090406165 0.16534272 -0.212656 0.12967032 0.3636358 -0.5004041 -0.36102945 -0.52683777 0.009371262 -0.14168373 0.27120513 0.02881644 -0.30998722 0.0554769 0.35043967 0.1219457 -0.27725932 0.7772933 0.13498425 -0.0023679158 0.35625127 0.020367885 0.2933068 -0.41103414 0.23233409 0.6875295 -0.16621333 0.036669295 -0.2883846 0.1832571 -0.23346238 0.5547318 0.0250158 -0.47427788 0.6582623 0.26799437 0.056764428 -0.38183948 0.022342166 -0.42925215 -0.35068983 0.419521 0.18082102 -0.41840157 -0.18830438 0.1213867 0.28903127 -0.1613339 -0.15020174 -0.8382739 -0.18620458 0.32520545 -0.4986984 -0.07192705 0.36543715 -0.36364678 0.120966725 -0.108078904 0.6442038 0.47281647 -0.28751537 0.37947094 0.48898017 -0.3024751 -0.32557338 0.25544336 -0.15251227 0.40902045 0.47917804 0.77725065 -0.3651954 0.15038888 -0.19664542 -0.019971404 0.3870082 0.13786407 0.09466049 0.055607155 0.11939972 -0.24656235 0.46545205 0.24303359 -0.3611049 -0.44969934 -0.6515847 0.30929846 -0.27171922 0.4527234
않다 0.029489078 0.49618995 -0.01959891 -0.56438845 -0.182343 0.18153755 0.054197796 -0.47178087 -0.13965122 -0.4667137 -0.094435886 0.5691422 0.09284043 0.2400206 -0.24784292 0.12692848 0.36799994 -0.5674037 -0.40719986 -0.4993907 0.005456046 -0.122536145 0.25002167 0.014256604 -0.34289294 0.060325418 0.37295353 0.14526725 -0.32780597 0.8506419 0.13127749 -0.009315179 0.3465301 -0.012177924 0.3493696 -0.40381563 0.21734336 0.71803784 -0.107381105 0.00937687 -0.33198813 0.1846565 -0.23576961 0.5662465 0.026536837 -0.50224787 0.69034296 0.2718034 0.059428595 -0.35312667 0.057255164 -0.40198305 -0.37738228 0.42456526 0.20321947 -0.4565401 -0.23512213 0.076158196 0.30099246 -0.21162654 -0.17297429 -0.9145916 -0.16563754 0.3131264 -0.50670147 -0.07155193 0.3894532 -0.3457381 0.1530047 -0.12024656 0.6873632 0.48768073 -0.32466462 0.3835316 0.4980915 -0.34086642 -0.34256014 0.25462118 -0.13660191 0.43365613 0.45680988 0.80228835 -0.40011743 0.12306161 -0.2638586 0.030981649 0.43939248 0.18619524 0.10054577 0.12656337 0.16879441 -0.22070464 0.47341847 0.2177139 -0.36255234 -0.4850046 -0.7002008 0.26405624 -0.2402114 0.44784465
지 0.046108447 0.51711905 -0.031269647 -0.5081877 -0.1808322 0.19509695 0.08011501 -0.49371552 -0.21404772 -0.50337714 -0.08826394 0.5566859 0.098818004 0.18228537 -0.24789639 0.13696808 0.38013315 -0.5435869 -0.38677186 -0.5771276 0.004519284 -0.14899139 0.28337348 0.057537124 -0.33208382 0.08593498 0.3620116 0.14756492 -0.28988433 0.81533647 0.14969002 0.0047673173 0.38453624 0.018237196 0.28990835 -0.42360333 0.23714796 0.7269593 -0.16850235 0.03953365 -0.3196899 0.19812436 -0.24664679 0.5538109 0.012750885 -0.5346198 0.6797643 0.2961323 0.04821285 -0.42741853 0.039515957 -0.46038195 -0.37986204 0.4282716 0.17246553 -0.4424407 -0.19585156 0.113595925 0.30575448 -0.1732776 -0.17700131 -0.86035657 -0.20806992 0.32796487 -0.497485 -0.06867669 0.38545448 -0.39218676 0.1290302 -0.09624998 0.65595716 0.5033411 -0.29748407 0.40888608 0.5144969 -0.3339488 -0.33017015 0.280129 -0.15697521 0.40347308 0.51401556 0.80583626 -0.3713381 0.1505521 -0.21746944 -0.02274749 0.40745285 0.13086969 0.090602174 0.07462307 0.09959033 -0.25860116 0.4783277 0.25883195 -0.3651067 -0.4611409 -0.6641607 0.3308398 -0.27373385 0.46166676
여론조사 0.044357825 0.4994681 -0.006031266 -0.4762792 -0.21533589 0.21091372 0.08776423 -0.47923902 -0.23170885 -0.50921875 -0.10399121 0.5595751 0.1137057 0.12871492 -0.2077113 0.12466791 0.36348885 -0.49346045 -0.3681383 -0.54675394 -0.012876451 -0.15942192 0.31013286 0.0434212 -0.3141348 0.070742875 0.3514667 0.13807963 -0.28252202 0.78722095 0.15958613 0.023745729 0.36538172 0.016764518 0.26399776 -0.42193398 0.22700761 0.68587655 -0.22246212 0.052930724 -0.24892174 0.20266198 -0.21836478 0.54374295 0.016587785 -0.49245706 0.63442075 0.2685871 0.035649303 -0.43550023 0.0075593884 -0.4672678 -0.3439088 0.43156886 0.16311486 -0.4070922 -0.16866036 0.13853814 0.31280297 -0.13847719 -0.15411682 -0.7956908 -0.19878496 0.33597422 -0.50048 -0.07440039 0.33341342 -0.3994425 0.1026696 -0.08778699 0.62767 0.4796115 -0.24994743 0.41992933 0.49843222 -0.29812512 -0.30454764 0.2636314 -0.13820717 0.40107664 0.47887936 0.7479766 -0.33907974 0.16182165 -0.15020216 -0.037000462 0.34819898 0.11447483 0.08554202 0.03269646 0.08460246 -0.26246956 0.45677847 0.26069215 -0.35676312 -0.42779216 -0.62712306 0.33276865 -0.2933571 0.4324288
ㅋㅋ 0.033202033 0.4944204 -0.009177468 -0.47231385 -0.19070718 0.20401226 0.069356956 -0.4527068 -0.2061531 -0.4904197 -0.08499596 0.53708786 0.10095216 0.153648 -0.19975889 0.11744963 0.36622387 -0.5009639 -0.35662055 -0.5247948 -0.005388738 -0.14932278 0.28861532 0.042281963 -0.29996333 0.06496531 0.34488776 0.1265976 -0.28381968 0.7578622 0.15949506 0.0070484285 0.36093855 0.018733202 0.27854952 -0.4012967 0.22084609 0.69347936 -0.17502755 0.051423255 -0.2774882 0.19533303 -0.21999359 0.53173983 0.027211813 -0.48058134 0.6282029 0.26340032 0.050550267 -0.40273303 0.013659036 -0.43552953 -0.34830678 0.41295344 0.1718661 -0.40451863 -0.17953497 0.1275512 0.29856613 -0.15420526 -0.14862409 -0.81467015 -0.20512219 0.32557124 -0.49728552 -0.07355814 0.34206286 -0.38186955 0.10742661 -0.09956707 0.62472785 0.4679445 -0.2686112 0.38659132 0.4838682 -0.29953852 -0.3066746 0.26085174 -0.13722004 0.39492154 0.46755198 0.75659156 -0.34113073 0.15121064 -0.18203582 -0.029719971 0.36653823 0.12803504 0.08520589 0.04754453 0.09680171 -0.26314646 0.4517985 0.2530791 -0.3486563 -0.43283254 -0.6329583 0.31215206 -0.28015068 0.43968436
그렇다 0.014519423 0.46665785 -0.010812322 -0.5003457 -0.17249386 0.1738954 0.05871062 -0.4227997 -0.16836923 -0.43855742 -0.07907881 0.52425647 0.094369896 0.19358583 -0.21710981 0.11815555 0.34315184 -0.512382 -0.35806936 -0.47529602 -0.006410351 -0.120389804 0.24789578 0.024458563 -0.2949509 0.053321496 0.34353918 0.13077617 -0.29129493 0.76016015 0.13004838 0.005194267 0.32812962 -0.0022183214 0.30319452 -0.38957512 0.20848458 0.66153026 -0.13948178 0.027383232 -0.2911674 0.17235298 -0.21738991 0.5147634 0.018106688 -0.45346862 0.6223232 0.2628017 0.04908488 -0.36875296 0.029562531 -0.3945334 -0.33909035 0.40150046 0.16314943 -0.40246 -0.1933171 0.09377517 0.2875039 -0.15923221 -0.14890204 -0.82097787 -0.16688323 0.31471208 -0.48546556 -0.0621047 0.34609985 -0.34344977 0.12742324 -0.09255326 0.61530966 0.43685886 -0.26732326 0.36430714 0.4563124 -0.302632 -0.31261364 0.24496897 -0.13552567 0.3897249 0.43731874 0.7313495 -0.3552522 0.116832785 -0.2137186 0.0035625799 0.3827769 0.14018518 0.09053034 0.08461117 0.1283932 -0.22291376 0.42891917 0.21591961 -0.35177973 -0.4421936 -0.6247759 0.2751967 -0.24141681 0.40743548
정치 0.041790545 0.5052465 -0.022847934 -0.5293956 -0.17877418 0.18156503 0.06416584 -0.4840518 -0.15253285 -0.47103083 -0.11788296 0.55147845 0.09815088 0.21166843 -0.22850871 0.13387488 0.37140775 -0.5473524 -0.39146072 -0.500218 0.021141052 -0.13793923 0.2633494 0.027564252 -0.3244804 0.076209486 0.37456542 0.14499281 -0.3093169 0.80644125 0.14100026 -0.011987681 0.3445654 -0.0039730296 0.31849638 -0.4115799 0.22633995 0.6961418 -0.13068865 0.022732599 -0.3023753 0.18582903 -0.24237205 0.5560047 0.023360586 -0.51619685 0.6792197 0.2717945 0.066741206 -0.35472867 0.058945354 -0.41810855 -0.38173795 0.41058293 0.20380658 -0.4662754 -0.2190243 0.09519879 0.30901608 -0.19069993 -0.17017907 -0.9041947 -0.18007796 0.31720248 -0.50555015 -0.060039923 0.38400298 -0.3503517 0.15049475 -0.13600819 0.67486537 0.4993815 -0.31510124 0.38326368 0.4951678 -0.32442605 -0.34004405 0.2559298 -0.1427138 0.40955245 0.48335668 0.810438 -0.3947664 0.14598863 -0.23134322 0.025102314 0.41735741 0.17000501 0.09361495 0.09825486 0.15169565 -0.24676299 0.45904008 0.21742791 -0.3647776 -0.48216188 -0.6741537 0.29682314 -0.25407988 0.4504285
좋다 0.030565742 0.44965106 -0.024811005 -0.49212822 -0.16014507 0.16634886 0.06133913 -0.43551275 -0.14574528 -0.4215198 -0.07639876 0.5044258 0.093969524 0.20357728 -0.21586514 0.12099722 0.33785266 -0.49850014 -0.353937 -0.45888925 0.007353906 -0.119659804 0.22875857 0.017177988 -0.30984712 0.05393164 0.33468735 0.12810965 -0.2897397 0.7450575 0.11764498 -0.009213176 0.31888995 -0.014509959 0.29913545 -0.3729078 0.21239683 0.63727975 -0.11329401 0.010440281 -0.28303173 0.16913332 -0.21225178 0.50649256 0.012906032 -0.46919984 0.6063946 0.24716413 0.061658967 -0.3237605 0.048981193 -0.3706753 -0.3331094 0.37822428 0.18302463 -0.4018352 -0.19648893 0.083581895 0.2838899 -0.17141382 -0.14618143 -0.81577814 -0.1639649 0.28135255 -0.4612555 -0.057570916 0.34716734 -0.3141809 0.13744023 -0.09591618 0.6068161 0.438031 -0.29354835 0.3432987 0.45749086 -0.29606053 -0.30609977 0.22917959 -0.13049157 0.38399646 0.4180353 0.72787213 -0.34847784 0.11730206 -0.20193693 0.016087426 0.3753625 0.15098383 0.0873725 0.10409748 0.14033446 -0.21885952 0.41454136 0.20061335 -0.34035066 -0.43576214 -0.61537427 0.24528961 -0.22451185 0.402187
게 0.031167597 0.4702669 -0.0063392767 -0.5081395 -0.16559745 0.18129031 0.07699952 -0.4630696 -0.18278965 -0.45051003 -0.10294372 0.53239405 0.10295194 0.20681888 -0.2180129 0.13199998 0.36356875 -0.5244431 -0.3530273 -0.49939746 -0.0087949075 -0.11928499 0.25184605 0.026399067 -0.30653876 0.056991562 0.34327292 0.13187474 -0.2984894 0.78603786 0.11459714 -0.0024164682 0.34491464 -0.0035911438 0.31319913 -0.3907597 0.20534025 0.6759668 -0.14310017 0.021687081 -0.27738464 0.17285842 -0.21147689 0.5329099 0.016574183 -0.47809207 0.6450397 0.2719175 0.04993759 -0.36751547 0.03976208 -0.4048324 -0.36145505 0.41363746 0.16452779 -0.42564484 -0.20453085 0.09504807 0.28541648 -0.17544924 -0.17259511 -0.8366723 -0.17385617 0.3009618 -0.483273 -0.062420953 0.35594654 -0.35526368 0.12978734 -0.10866974 0.6353708 0.4523219 -0.2865414 0.37721428 0.46859342 -0.30020395 -0.30993944 0.25844234 -0.13257508 0.3914383 0.45274815 0.7519749 -0.36174724 0.13065729 -0.22492181 0.0012787392 0.3877189 0.15640832 0.07697675 0.09953052 0.13374184 -0.22625585 0.441782 0.23073366 -0.34125248 -0.4442523 -0.63499415 0.2904393 -0.25948533 0.42302734
대다 0.0630865 0.563122 -0.030982593 -0.51620096 -0.22484308 0.285369 0.09429442 -0.5487367 -0.1957509 -0.55426365 -0.13223799 0.6212594 0.15491506 0.1905819 -0.17707899 0.119066656 0.45964774 -0.52015275 -0.38862443 -0.61889446 0.061032597 -0.11843669 0.31038556 0.049193915 -0.34513733 0.041612573 0.33018827 0.12602195 -0.31668818 0.86384463 0.17532244 0.040899508 0.37463325 0.05474455 0.31419304 -0.40379688 0.24488498 0.75634825 -0.12801825 0.07027615 -0.31489518 0.2031095 -0.21006152 0.6086131 0.05170044 -0.53623533 0.67517143 0.31998193 0.08060272 -0.3926014 0.039408013 -0.46884757 -0.3202836 0.38617912 0.23951337 -0.46326455 -0.20905481 0.15594016 0.27087352 -0.13304818 -0.14935541 -0.8184296 -0.2782293 0.32651997 -0.5404304 -0.12880576 0.34279603 -0.43206984 0.13721207 -0.09820789 0.71187764 0.5738583 -0.2997286 0.3732136 0.51686466 -0.29808965 -0.33189064 0.25122094 -0.19474787 0.35597676 0.5454207 0.8554763 -0.43182668 0.17825551 -0.1646431 0.013110338 0.44082198 0.15605977 0.04698789 0.027230438 0.09966529 -0.22033726 0.44777903 0.3120968 -0.36016378 -0.4395789 -0.7350875 0.37198338 -0.33053374 0.48434994
생각 0.018863887 0.45933175 -0.006899859 -0.49270397 -0.16835107 0.16477431 0.056719143 -0.44963053 -0.15454307 -0.4230201 -0.0969638 0.51275253 0.084499285 0.2089285 -0.23044191 0.1289299 0.3358516 -0.51366466 -0.35449043 -0.46031836 0.010048853 -0.11995099 0.23432012 0.021376435 -0.2989265 0.06443449 0.33310223 0.14251815 -0.28695035 0.75098515 0.10479074 -0.019854028 0.31789944 -0.0034253201 0.30538464 -0.3800973 0.19617271 0.62872523 -0.11183738 0.012534648 -0.28058058 0.17043898 -0.22438882 0.514284 0.02182239 -0.4590887 0.62130183 0.25507694 0.05164804 -0.32770255 0.061856154 -0.371686 -0.3540192 0.39122203 0.17810002 -0.41778082 -0.19862646 0.080909304 0.27624556 -0.18054456 -0.15799302 -0.81914395 -0.15419896 0.2890862 -0.4524564 -0.05744005 0.35455146 -0.32408142 0.14271453 -0.106430724 0.6119629 0.43288866 -0.28145263 0.34538868 0.46258295 -0.29532462 -0.31261864 0.23271215 -0.13135505 0.37936553 0.4277573 0.72711575 -0.3482528 0.13191976 -0.22624587 0.009209717 0.39113164 0.16516255 0.08406058 0.10622003 0.1446947 -0.21562383 0.419303 0.19624339 -0.32577068 -0.43216953 -0.61529905 0.25205252 -0.2231008 0.41399798
니 0.024711192 0.50170135 -0.015391443 -0.504107 -0.17721291 0.18237886 0.074422315 -0.45217645 -0.19529505 -0.46529177 -0.07558037 0.5476709 0.0886451 0.18056947 -0.22285631 0.1315824 0.36397886 -0.5374699 -0.37432328 -0.5294799 0.00026537583 -0.14650574 0.27349424 0.03478814 -0.31387988 0.058985885 0.35400015 0.1479599 -0.29917103 0.7887598 0.14257576 -0.0054809432 0.36406672 0.013149501 0.31738037 -0.4073245 0.22822477 0.7035006 -0.15885168 0.042567413 -0.31848922 0.1877797 -0.22917353 0.55414677 0.039518468 -0.49197987 0.6589015 0.28156608 0.0598752 -0.40306646 0.040152665 -0.42575192 -0.36366844 0.42404366 0.17212504 -0.41185808 -0.19278964 0.11277062 0.30647156 -0.17982218 -0.15342304 -0.8590802 -0.18692076 0.33762732 -0.51147926 -0.0686333 0.36242417 -0.37268415 0.1321086 -0.089210406 0.6560895 0.4650287 -0.27993214 0.3973905 0.48551998 -0.31614387 -0.32072583 0.26441008 -0.15294851 0.41342288 0.4824576 0.7721107 -0.35139275 0.13358156 -0.2166342 -0.017273134 0.403469 0.14259623 0.09376099 0.06550141 0.122991994 -0.2512182 0.458397 0.25639096 -0.37296247 -0.46616217 -0.64695996 0.30510196 -0.2693947 0.44940147
더 0.030535808 0.48738787 -0.028915374 -0.52336204 -0.17859039 0.18433172 0.054676604 -0.45096165 -0.16827503 -0.446426 -0.08986596 0.54082865 0.10769556 0.20957321 -0.22248682 0.13220279 0.34711972 -0.5084788 -0.3660461 -0.48085544 0.019697 -0.11945803 0.2369156 0.022810202 -0.31348607 0.059983525 0.3516301 0.12801069 -0.2926083 0.79025275 0.13290323 -0.0036407178 0.3411816 -0.0054544853 0.30714488 -0.3819399 0.20846966 0.66866416 -0.11901815 0.022546884 -0.29727933 0.18034257 -0.22407816 0.5319848 0.017950399 -0.48778325 0.63656294 0.26625404 0.05450478 -0.35188696 0.046541642 -0.4016483 -0.36355785 0.4103303 0.19355108 -0.43569678 -0.21375522 0.07388129 0.28698742 -0.18821126 -0.16409524 -0.8449487 -0.16249824 0.31025615 -0.4729581 -0.06433916 0.35781088 -0.3401109 0.13972996 -0.11503811 0.639906 0.47729155 -0.29568198 0.36729982 0.4770959 -0.3174459 -0.32577634 0.23405823 -0.12872627 0.40527037 0.45082274 0.7557952 -0.38029498 0.13288334 -0.21728714 0.027356751 0.408317 0.15365355 0.08678457 0.10341804 0.14906038 -0.24015191 0.42805234 0.201809 -0.3546779 -0.46478167 -0.6458584 0.26277474 -0.22514865 0.42875463
홍준표 0.042787433 0.45793855 -0.029672915 -0.52108085 -0.16747114 0.17658743 0.063791014 -0.4552893 -0.14778985 -0.4481794 -0.09340115 0.52301526 0.12053451 0.20839319 -0.20782524 0.13042916 0.36760813 -0.5100522 -0.36008954 -0.47794673 0.0048632775 -0.10452223 0.23644905 0.004503233 -0.30735222 0.05892126 0.35090834 0.11653665 -0.30492222 0.7814952 0.13315919 -0.0032370286 0.33954448 -0.0025526676 0.30052486 -0.36783755 0.21629457 0.68396544 -0.10717258 0.017157901 -0.30241388 0.16848983 -0.22319005 0.53139347 0.042154167 -0.4764052 0.6536148 0.2632723 0.053527657 -0.32644555 0.024471376 -0.40018138 -0.3420003 0.38178423 0.20015094 -0.43412176 -0.21253213 0.08350866 0.28236955 -0.18227312 -0.1619301 -0.82459503 -0.1855632 0.288493 -0.47745356 -0.078240484 0.34359953 -0.31768215 0.15830663 -0.118924595 0.6320675 0.49583417 -0.30776387 0.34917125 0.48031864 -0.3085243 -0.31199202 0.24201807 -0.13249171 0.3927726 0.43205282 0.770485 -0.4054399 0.11536041 -0.20188147 0.013643975 0.39946112 0.17284238 0.08177007 0.11041942 0.15679054 -0.2193754 0.4559024 0.1947745 -0.35465074 -0.44696897 -0.6584302 0.2649893 -0.24375118 0.41911146
인 0.067920364 0.5217116 -0.0050310097 -0.5639854 -0.1617384 0.1859788 0.113272704 -0.5266415 -0.14824776 -0.4195858 -0.13090217 0.5583708 0.11913187 0.20749554 -0.25540444 0.18522276 0.38067254 -0.55417174 -0.3822137 -0.48417643 -0.021012593 -0.13923809 0.2083069 0.066723555 -0.3278933 0.06927886 0.3442176 0.14042011 -0.30823004 0.8203517 0.11529331 -0.031660587 0.35544863 -0.03931528 0.29942685 -0.43331978 0.21559045 0.6620416 -0.12539977 0.034674603 -0.31104353 0.22163309 -0.24614257 0.5793862 -0.009074479 -0.55663276 0.65826666 0.2601905 0.060313337 -0.33506188 0.13740712 -0.42977488 -0.3750878 0.45159623 0.148286 -0.50734586 -0.21501812 0.06923222 0.3191368 -0.19381258 -0.2170067 -0.8847728 -0.16007529 0.28568608 -0.43529698 -0.037667222 0.37813655 -0.37351957 0.14897573 -0.12275333 0.6960033 0.5329835 -0.2757299 0.33138528 0.5265672 -0.3156067 -0.34786093 0.24350286 -0.14917083 0.40201896 0.49076226 0.77318037 -0.406686 0.1715638 -0.26623708 0.041912828 0.3558922 0.16989441 0.08977626 0.15887637 0.19070786 -0.22332403 0.42940265 0.15504763 -0.38228184 -0.42842206 -0.6533952 0.30914348 -0.2090646 0.46272957
대 -0.00015909463 0.5295299 -0.04456527 -0.5365468 -0.19475147 0.18614364 0.074892 -0.42431322 -0.16530582 -0.48601952 -0.112481795 0.56924886 0.11204571 0.18595655 -0.1956888 0.11919959 0.3797509 -0.5232569 -0.38178134 -0.52853256 0.036242113 -0.10820515 0.25562268 0.027012138 -0.3045754 0.086442746 0.3147896 0.13372613 -0.27219135 0.8146252 0.15627754 0.026603797 0.3329798 0.030690735 0.32261023 -0.37517497 0.20148066 0.7258101 -0.124351345 0.030642582 -0.29643175 0.15454838 -0.2423745 0.54793954 0.05266714 -0.45783052 0.6706904 0.28496793 0.028586773 -0.36402985 0.02108078 -0.40131912 -0.34494042 0.38937446 0.18579666 -0.44332 -0.22375034 0.10075421 0.29555503 -0.19318272 -0.15991035 -0.8774167 -0.20512998 0.35035667 -0.5042042 -0.09677951 0.32983455 -0.36343685 0.10764787 -0.10869333 0.6608135 0.47744387 -0.27982494 0.3637352 0.4680237 -0.3101086 -0.33415952 0.2577312 -0.1236919 0.37621254 0.4867331 0.7542952 -0.3876328 0.106502645 -0.2191558 0.03449875 0.4460548 0.16551495 0.054720473 0.07734554 0.16423637 -0.19636758 0.44970906 0.2686071 -0.32081926 -0.4815531 -0.68388397 0.31781438 -0.2713242 0.47585815
네 0.020451708 0.5047843 -0.016401833 -0.4888185 -0.1878621 0.19538525 0.067010686 -0.46593556 -0.19490296 -0.48497817 -0.09233845 0.5480093 0.09646269 0.17400044 -0.21038005 0.12341016 0.38081223 -0.52197945 -0.37423882 -0.54149085 0.011627908 -0.16150504 0.27853853 0.033238474 -0.3154414 0.05995245 0.3443578 0.12497198 -0.285614 0.7748312 0.14851971 0.002703986 0.3536528 0.025201352 0.28692502 -0.4073255 0.2165632 0.6986807 -0.16727473 0.03708041 -0.2924117 0.1923797 -0.23081122 0.5551436 0.024200711 -0.47870293 0.6420016 0.27122766 0.055842504 -0.40921563 0.031272523 -0.44296354 -0.3611763 0.42839018 0.18097201 -0.41002887 -0.18696374 0.13079585 0.2934872 -0.15628318 -0.14852479 -0.83860296 -0.20246036 0.34155136 -0.519713 -0.07834974 0.34749055 -0.37939835 0.11731086 -0.09557709 0.6351301 0.466012 -0.28181043 0.38740492 0.49526858 -0.3133372 -0.31920165 0.2538648 -0.15701082 0.40340373 0.48262495 0.7658957 -0.35454026 0.14734715 -0.1886489 -0.020434123 0.38797644 0.123366274 0.101127945 0.05026344 0.11181762 -0.24767321 0.46324787 0.26088524 -0.3561964 -0.44545066 -0.65617067 0.30871066 -0.26793495 0.44617352
표절 0.02670562 0.5197829 -0.002087884 -0.5154887 -0.19081974 0.21785198 0.08070356 -0.48868337 -0.22379962 -0.51664746 -0.096293025 0.5689617 0.10156642 0.17906323 -0.22591639 0.12866934 0.39773172 -0.5637406 -0.373425 -0.5657185 -0.01567884 -0.16586375 0.2960719 0.04242102 -0.34438324 0.07434496 0.36497998 0.15409447 -0.31452823 0.83870417 0.16675785 0.0021628577 0.38857174 0.007591 0.3313659 -0.4399614 0.23362982 0.7447289 -0.18638115 0.053600747 -0.31209448 0.20635962 -0.2417464 0.5892746 0.03804187 -0.53379935 0.68649125 0.2881397 0.042199887 -0.44063932 0.03678802 -0.454189 -0.36869445 0.44597474 0.18240291 -0.44523567 -0.18867072 0.12674555 0.32992905 -0.17187683 -0.16855642 -0.90206265 -0.21392466 0.3604932 -0.53726053 -0.057346385 0.37513214 -0.409604 0.11945531 -0.10245752 0.6829518 0.49723977 -0.28029287 0.4322603 0.52637464 -0.3309596 -0.33099562 0.29899633 -0.14903934 0.40847623 0.51409346 0.82195574 -0.37335733 0.16615392 -0.21391727 -0.021934293 0.4073924 0.14403087 0.099669084 0.04911544 0.119437136 -0.28350133 0.4841796 0.2829948 -0.38577574 -0.48350996 -0.6879563 0.33062562 -0.29483983 0.4649899
뭐 0.015689239 0.45350137 -0.0041523795 -0.46212736 -0.17717837 0.17346542 0.08356827 -0.4239406 -0.21913458 -0.4637453 -0.08065303 0.5143299 0.09301925 0.13429244 -0.21756096 0.12404403 0.3381212 -0.5029493 -0.339598 -0.51578707 -0.01406559 -0.14566246 0.2721256 0.045920037 -0.28159243 0.05978645 0.32796225 0.15155207 -0.2685809 0.7470418 0.12107149 0.027301509 0.3514627 -0.0023790114 0.2919064 -0.3890748 0.19255088 0.65593654 -0.18867357 0.028851524 -0.27551785 0.18172218 -0.19441079 0.51380557 0.03297213 -0.45501763 0.5935969 0.28146464 0.03755359 -0.40481701 0.015112539 -0.4128215 -0.33558622 0.40107235 0.13441207 -0.36783627 -0.16201109 0.111735776 0.28580981 -0.1362126 -0.15275452 -0.7840515 -0.18508746 0.31477827 -0.4771999 -0.056722 0.32498842 -0.37048686 0.114365384 -0.08374254 0.60269004 0.4216184 -0.25008854 0.40175536 0.44934666 -0.28809363 -0.2935519 0.26229808 -0.14870471 0.37529802 0.46081683 0.71306103 -0.31980312 0.13231872 -0.188914 -0.030737024 0.3571287 0.12537858 0.072636195 0.042659417 0.09529257 -0.25569624 0.4099286 0.2582352 -0.3409742 -0.41441444 -0.60370815 0.3152478 -0.26432788 0.40555125
안되다 0.0324121 0.4759791 -0.03731632 -0.5390777 -0.16814756 0.15749516 0.05519832 -0.4352523 -0.13809432 -0.43948835 -0.09387237 0.5115767 0.10527482 0.23160595 -0.230605 0.1362926 0.35146198 -0.5368977 -0.38476166 -0.48387665 0.021187447 -0.11265669 0.24095088 0.009317501 -0.314794 0.066385806 0.36085868 0.12845892 -0.3142795 0.78213906 0.13197243 -0.021758141 0.33836484 -0.0005532758 0.3347549 -0.37732288 0.21294652 0.6729931 -0.09390205 0.02862908 -0.32654965 0.16990623 -0.22778694 0.5354213 0.041279532 -0.48539257 0.6451717 0.2695044 0.065812275 -0.3253183 0.031653576 -0.38834426 -0.36597416 0.3871512 0.1956301 -0.41720268 -0.20506273 0.08213416 0.28188255 -0.2005601 -0.14378466 -0.8555532 -0.17093924 0.29713127 -0.47581884 -0.059548758 0.3629125 -0.3312566 0.14878096 -0.113676205 0.63601613 0.46998775 -0.3246433 0.36820647 0.46509334 -0.31300184 -0.31996325 0.24641617 -0.123489544 0.39312458 0.4429605 0.77778894 -0.3880957 0.10677016 -0.22939846 0.03276152 0.4225592 0.15856214 0.08743685 0.11155993 0.15047786 -0.22570617 0.44955704 0.20630698 -0.35308298 -0.48107535 -0.66320753 0.26122323 -0.24122751 0.4285069
ㅋㅋㅋ 0.03987303 0.47104973 -0.01796553 -0.44744578 -0.1889354 0.19549376 0.0693838 -0.43418232 -0.20131843 -0.47401765 -0.088687144 0.5138634 0.10162048 0.14314531 -0.19503717 0.112752825 0.3577931 -0.4822548 -0.3435238 -0.5158961 0.013615151 -0.15407865 0.27875352 0.039920997 -0.28246537 0.06292126 0.3234976 0.12884803 -0.25576526 0.72730786 0.14430954 0.016670203 0.34694555 0.025229177 0.26258862 -0.37832355 0.2124713 0.66139513 -0.1811323 0.04846182 -0.26639315 0.17612846 -0.21720782 0.51109004 0.02783173 -0.46204185 0.6152469 0.26216647 0.036418147 -0.40475303 0.01286717 -0.42792183 -0.32994932 0.39776042 0.16344959 -0.4002164 -0.16956961 0.116105564 0.2821289 -0.14623292 -0.14252917 -0.7786442 -0.18997644 0.31911826 -0.4837767 -0.06352456 0.32616723 -0.36907157 0.10488146 -0.08073245 0.5938206 0.46407482 -0.25091454 0.3859997 0.46121806 -0.27883318 -0.2967016 0.2603807 -0.14412014 0.36676696 0.46420965 0.72533464 -0.33634472 0.14970836 -0.16066512 -0.02858931 0.3504714 0.11607086 0.07104357 0.036409963 0.09032286 -0.23969872 0.42884064 0.24673626 -0.33060178 -0.4194055 -0.6087023 0.31297255 -0.27516773 0.4250948
대한민국 0.031629305 0.50075096 -0.05082201 -0.58874345 -0.15764925 0.15911561 0.0467076 -0.45151126 -0.100801885 -0.3872727 -0.087441206 0.54423624 0.097357236 0.2805122 -0.22166678 0.13814746 0.3606787 -0.55881786 -0.38585642 -0.4420002 0.016130647 -0.08677939 0.21069643 0.00029081918 -0.3323968 0.049485568 0.36220574 0.13610555 -0.3342014 0.8208762 0.116155 -0.041200638 0.32972145 -0.020343874 0.35209894 -0.3635952 0.20900138 0.68685067 -0.05530829 -0.014226668 -0.33558393 0.16070083 -0.23239121 0.5495083 0.030207235 -0.4806393 0.67976403 0.25443026 0.06004247 -0.28049558 0.060738433 -0.3609116 -0.37104553 0.37936875 0.22374438 -0.45522183 -0.2536012 0.0585636 0.2892303 -0.23354308 -0.16936067 -0.92008203 -0.13953307 0.28489795 -0.47754124 -0.07322288 0.36799225 -0.29316607 0.16449428 -0.12752649 0.65589094 0.48467556 -0.33831915 0.33362296 0.47887218 -0.3433327 -0.33764026 0.23660934 -0.11959906 0.4239486 0.42544937 0.7814634 -0.42174843 0.097793244 -0.27687725 0.071102045 0.44695875 0.21013367 0.08763946 0.1596017 0.19384976 -0.19271235 0.4625707 0.17483954 -0.3405112 -0.49697462 -0.6948124 0.2269923 -0.21049727 0.43623292
라 0.03052369 0.5359722 -0.039158072 -0.55426806 -0.17697397 0.1892369 0.044272278 -0.46481174 -0.17325108 -0.48908123 -0.09849519 0.5844607 0.09816072 0.23781192 -0.21813436 0.14377819 0.38092968 -0.55859864 -0.3944971 -0.54312754 0.011481311 -0.13241687 0.2575279 0.014776847 -0.34857294 0.07871178 0.3700785 0.13927196 -0.31589082 0.8356871 0.15659788 -0.010380895 0.34716377 0.0015607068 0.33237666 -0.4174544 0.23868173 0.7267865 -0.114863805 0.044440355 -0.34917957 0.18718837 -0.2534331 0.58330196 0.05017334 -0.5097838 0.7139344 0.26572025 0.06852601 -0.3656233 0.043540977 -0.45180202 -0.38484797 0.4401878 0.21268354 -0.46423578 -0.22605291 0.10042253 0.3233213 -0.18303427 -0.16867048 -0.92828256 -0.18085098 0.34908104 -0.5397238 -0.08586718 0.39642796 -0.3668821 0.147795 -0.11136034 0.6839548 0.5177203 -0.33990595 0.3844549 0.52230257 -0.34394667 -0.34008953 0.2713207 -0.13341811 0.43637908 0.48568198 0.82186353 -0.39985624 0.14795251 -0.24165946 0.017486904 0.4583068 0.16537578 0.11617046 0.09073045 0.15435913 -0.24345818 0.48276103 0.2418484 -0.37163323 -0.49472463 -0.71320856 0.2947593 -0.27071872 0.462999
하 0.0380575 0.5165628 -0.029368386 -0.5743184 -0.17385057 0.17051794 0.06401318 -0.46788096 -0.14481339 -0.45224467 -0.092223205 0.56668955 0.0975133 0.24939948 -0.2220984 0.14604177 0.3860824 -0.5778636 -0.40979487 -0.5113243 0.026354143 -0.1492242 0.24352254 0.012771599 -0.3209953 0.06114369 0.36184 0.1359994 -0.316727 0.82026684 0.14131121 -0.011756249 0.34606847 -0.00052939984 0.33700916 -0.3956764 0.22563674 0.7209742 -0.10441269 0.018448764 -0.3539488 0.18242036 -0.2420213 0.56503546 0.039238226 -0.5097451 0.68988305 0.27356753 0.07225867 -0.34774217 0.058766183 -0.42908555 -0.37912613 0.42771098 0.22449227 -0.43954724 -0.24377091 0.09086935 0.3012834 -0.21985413 -0.16935314 -0.91667086 -0.16384089 0.33241984 -0.49925697 -0.0822514 0.37386185 -0.3361614 0.1545439 -0.1154556 0.6869391 0.5008727 -0.3230509 0.37653965 0.49441555 -0.35154405 -0.3295118 0.2552445 -0.1446899 0.42499068 0.46410292 0.8125571 -0.38287446 0.12589258 -0.23645872 0.033924527 0.4525716 0.17311123 0.10368214 0.11845721 0.14991437 -0.2184006 0.46806806 0.23007901 -0.3668917 -0.50021607 -0.6922518 0.27258423 -0.25638786 0.45555985
문 0.043040577 0.5270963 -0.123327896 -0.6375788 -0.108462624 0.08303185 -0.0076635634 -0.3409628 -0.07069972 -0.3261487 -0.04259406 0.49782938 0.06543871 0.37447074 -0.24801782 0.1133252 0.3514252 -0.55807763 -0.40644303 -0.38809034 -0.012673911 -0.07747234 0.15605408 -0.057278816 -0.36689124 0.014915624 0.3045209 0.13073665 -0.33084032 0.78793406 0.14537936 -0.088774845 0.29102615 -0.024518317 0.38594595 -0.32232124 0.25049824 0.6703708 0.065621935 -0.014969543 -0.3988016 0.11956533 -0.247985 0.49268684 0.080994576 -0.39865282 0.71075594 0.20573393 0.04772819 -0.24377853 0.09152553 -0.30992657 -0.28739604 0.37435412 0.26420203 -0.41101804 -0.33097857 0.01401129 0.26092863 -0.2890072 -0.12335333 -0.9396124 -0.09308506 0.30249062 -0.44356695 -0.10850827 0.33564758 -0.23969142 0.18056577 -0.10873873 0.67189115 0.46934432 -0.3514511 0.29610124 0.3916089 -0.38496777 -0.3368752 0.18912376 -0.11462026 0.39320853 0.32686484 0.70630187 -0.44467276 0.02023158 -0.32290536 0.095520794 0.4942746 0.24975112 0.086962506 0.2015722 0.22386026 -0.14057645 0.46615914 0.17934117 -0.35843065 -0.5272117 -0.68241936 0.14842524 -0.15963547 0.39878628
윤 0.045282174 0.5144451 -0.02490792 -0.5559651 -0.17755589 0.18968377 0.06817627 -0.47910902 -0.16869126 -0.46829215 -0.08450522 0.5749713 0.10544353 0.22562535 -0.22668481 0.12976876 0.38665706 -0.5564294 -0.39063212 -0.52570945 0.015989603 -0.13880824 0.2619698 0.022434784 -0.3412114 0.05335595 0.35853457 0.13818638 -0.3310068 0.82468194 0.16287675 -0.015818032 0.37187204 -0.0018451535 0.329423 -0.40719205 0.23086575 0.73366016 -0.12190811 0.030474212 -0.33411586 0.20011005 -0.24642704 0.57609576 0.027616404 -0.5185677 0.69520754 0.27981204 0.060809102 -0.36341798 0.041481182 -0.4182113 -0.37843853 0.4209869 0.2152653 -0.462108 -0.23487078 0.105281584 0.30360088 -0.20568793 -0.16515388 -0.896197 -0.20027559 0.34054926 -0.5224302 -0.08485556 0.37549037 -0.36289296 0.1547725 -0.11929426 0.67500865 0.51341283 -0.31616008 0.37402782 0.50232124 -0.33237237 -0.34472075 0.25816455 -0.13363461 0.42717308 0.4763585 0.8103803 -0.3928417 0.14198492 -0.22558634 0.014300767 0.41906568 0.17529082 0.10133072 0.11095259 0.14986786 -0.2377323 0.4782137 0.22963549 -0.37850434 -0.47937503 -0.7042664 0.27568746 -0.2557304 0.46052885
인간 0.034414686 0.46844998 -0.022917444 -0.49745613 -0.172186 0.1881059 0.0644105 -0.46335563 -0.19206847 -0.45802385 -0.08946689 0.5243604 0.10587935 0.17588371 -0.21981151 0.1339289 0.35704407 -0.5081958 -0.36206323 -0.5125952 0.011097505 -0.124310404 0.2707104 0.027950652 -0.30495888 0.07476761 0.35383266 0.12614007 -0.28622246 0.7681477 0.12100606 -0.013811706 0.35322556 0.00929575 0.29974115 -0.4084072 0.2143265 0.6765235 -0.15020321 0.039441377 -0.29154775 0.17214161 -0.23183696 0.54699904 0.027452815 -0.51267296 0.63821846 0.2762584 0.06434247 -0.3727422 0.025360042 -0.40592006 -0.36692107 0.39789915 0.18230477 -0.43962157 -0.19051038 0.1018163 0.3001051 -0.16935971 -0.15176219 -0.8493149 -0.18708052 0.31360236 -0.485064 -0.056017373 0.36790738 -0.36468688 0.1318202 -0.11776363 0.6371668 0.47922552 -0.2978586 0.37685117 0.48799497 -0.29540223 -0.31134596 0.25600833 -0.1344482 0.39423513 0.468918 0.7866498 -0.36909762 0.14612664 -0.19596955 -0.003153596 0.3951582 0.16050231 0.0759622 0.07865651 0.12129708 -0.26020145 0.4492392 0.21990284 -0.35703242 -0.45713672 -0.6321473 0.2833387 -0.2605703 0.43647075
내 0.03817916 0.5049426 -0.031606387 -0.56209916 -0.16855848 0.17120275 0.05326431 -0.46694276 -0.13928843 -0.4546081 -0.097703114 0.5621746 0.09789878 0.23704128 -0.22275713 0.13511923 0.36287922 -0.5429649 -0.38560653 -0.49015182 -0.0019938648 -0.12116162 0.24224561 0.020058028 -0.33539814 0.06658932 0.35926843 0.14203893 -0.31656405 0.8265171 0.14799899 -0.014805714 0.35049585 0.007604664 0.33906382 -0.38117906 0.22160442 0.7027397 -0.09553909 0.02700747 -0.31332803 0.18480307 -0.24196967 0.5655667 0.04905927 -0.49160433 0.68390733 0.26530358 0.07375795 -0.35594773 0.03649105 -0.4112414 -0.36722115 0.40149882 0.20298855 -0.42917818 -0.2178849 0.07918195 0.30886596 -0.20561029 -0.1637915 -0.90487176 -0.17369808 0.33163407 -0.49565464 -0.07788107 0.36387247 -0.34897363 0.15769792 -0.11673617 0.6666396 0.48748055 -0.3268453 0.38167885 0.48208672 -0.34104952 -0.3345766 0.24316007 -0.14219713 0.4151804 0.4658175 0.79089445 -0.3931295 0.1103011 -0.23921198 0.020436924 0.43849924 0.17207584 0.084091716 0.11709077 0.16213097 -0.22906917 0.4602718 0.22680278 -0.36398327 -0.4846025 -0.6904416 0.28685284 -0.24021898 0.4539192
놈 0.04256267 0.46480012 -0.020699298 -0.48368502 -0.17506795 0.18769173 0.06577643 -0.4587408 -0.17292868 -0.4430691 -0.08958127 0.5132042 0.10436938 0.1855698 -0.20699249 0.13056569 0.3512126 -0.49732387 -0.36036187 -0.4916805 0.01051877 -0.12414525 0.26235232 0.025540577 -0.29760125 0.062503606 0.34779283 0.1247662 -0.28973252 0.74987274 0.13366261 -0.012434157 0.34169155 0.01824495 0.29333332 -0.38241005 0.2125509 0.6698667 -0.12772796 0.04144033 -0.27778855 0.16489223 -0.21758914 0.51810676 0.025819065 -0.48768 0.6369506 0.26330832 0.064882375 -0.3634157 0.031319927 -0.39113477 -0.35765335 0.3790659 0.18236333 -0.41565198 -0.19356354 0.0948367 0.2870154 -0.17587534 -0.14634946 -0.82860506 -0.17989475 0.30536437 -0.46861178 -0.06653151 0.3544077 -0.34144253 0.13031608 -0.11413103 0.6185146 0.47357792 -0.28939965 0.36547 0.47102636 -0.30464295 -0.31118163 0.25466356 -0.12406843 0.3833497 0.45987153 0.76756114 -0.35849085 0.14055386 -0.19565009 0.0022789908 0.38857862 0.15699606 0.071769565 0.08964474 0.123025686 -0.24124123 0.43435282 0.2177491 -0.3402755 -0.45356014 -0.61850977 0.27485684 -0.25570732 0.43487838
문재인 0.02961946 0.5138051 -0.059032176 -0.6044874 -0.15004095 0.15730245 0.048916664 -0.42274505 -0.09027523 -0.39127833 -0.072275095 0.52525985 0.08765606 0.29062745 -0.23254563 0.13385415 0.37483433 -0.547565 -0.38486207 -0.44784525 0.008987976 -0.0938191 0.21705137 -0.009695139 -0.33854333 0.055778936 0.3462253 0.14523885 -0.33082163 0.8110619 0.13708204 -0.04074043 0.32515872 -0.016288336 0.34856275 -0.3551886 0.23188287 0.6941476 -0.043514483 -0.009723936 -0.3522819 0.16187656 -0.21980894 0.5374479 0.051971424 -0.47107765 0.6929786 0.25088185 0.06259594 -0.28547212 0.048381772 -0.34632677 -0.34727907 0.36634058 0.22517768 -0.43041468 -0.2617633 0.062263433 0.28131437 -0.23957916 -0.16197327 -0.90184253 -0.1473785 0.29411122 -0.46825653 -0.0967354 0.3458303 -0.27990794 0.1816854 -0.12616819 0.6457364 0.48437408 -0.35027984 0.33529067 0.46348667 -0.35576046 -0.32838562 0.23100522 -0.1269267 0.40662202 0.39736536 0.7578454 -0.41957346 0.06839416 -0.25935122 0.06952861 0.46171296 0.20585068 0.08324781 0.16431476 0.1961536 -0.1957733 0.4623646 0.19443712 -0.35806075 -0.50476426 -0.67713374 0.22811845 -0.20439097 0.42912284
죄명 0.04119635 0.50898015 -0.044690695 -0.542315 -0.16141425 0.15830679 0.04499275 -0.4533591 -0.15910347 -0.44808614 -0.086163 0.5422533 0.10277898 0.24203952 -0.23803572 0.13381346 0.36173132 -0.54635864 -0.39854524 -0.50939786 0.017181901 -0.13247545 0.25057757 0.018009808 -0.328151 0.057222556 0.3612993 0.12205423 -0.31678763 0.803262 0.15135126 -0.029539505 0.3470742 0.0022017453 0.32012033 -0.3995176 0.22178146 0.69643915 -0.08716134 0.02806669 -0.3538981 0.17483327 -0.24981117 0.56075805 0.03693631 -0.49134558 0.68371713 0.2681422 0.059306126 -0.3603952 0.043724187 -0.4028124 -0.37834403 0.41379866 0.2179202 -0.45147246 -0.23125756 0.080550276 0.28757638 -0.2141115 -0.15592495 -0.898883 -0.17650345 0.3315567 -0.50687337 -0.078878246 0.36647868 -0.3341765 0.15572125 -0.1277808 0.6765956 0.50914145 -0.33042112 0.3639239 0.47352064 -0.32765743 -0.343284 0.24706416 -0.12527348 0.41880634 0.46405485 0.79870063 -0.40069622 0.11721633 -0.24240203 0.030326774 0.4484527 0.17543425 0.089772984 0.117410585 0.14398763 -0.22195593 0.4745078 0.2262777 -0.36138904 -0.48812202 -0.6937319 0.2600517 -0.23528567 0.460291
때 0.042964164 0.49963468 -0.036863975 -0.5581591 -0.17142321 0.18876642 0.065646194 -0.46698534 -0.14323656 -0.45634747 -0.090347804 0.55984175 0.10245645 0.23981422 -0.23322278 0.14359717 0.37747455 -0.53726673 -0.39148057 -0.5023992 0.008956626 -0.11901565 0.2617381 0.0147009995 -0.3288143 0.057333723 0.36176664 0.122444004 -0.33150303 0.81718516 0.13741402 -0.015858872 0.3466731 -0.0073434645 0.3273926 -0.38853598 0.21869679 0.71429783 -0.1080191 0.02616755 -0.3330125 0.18171853 -0.23834875 0.55849665 0.03901581 -0.50594455 0.6915321 0.27609304 0.06132719 -0.34719485 0.030992595 -0.400656 -0.37018117 0.4005835 0.20705153 -0.4532096 -0.23570837 0.08058115 0.30176935 -0.20934798 -0.16536681 -0.8883887 -0.17713375 0.31893283 -0.502079 -0.087808855 0.36790678 -0.337835 0.1523425 -0.12414948 0.6601149 0.50151724 -0.32211894 0.37866727 0.49737838 -0.33450285 -0.33077416 0.2602619 -0.13650799 0.42126143 0.45967424 0.8038464 -0.40283662 0.11586553 -0.22016728 0.033099633 0.43031946 0.17296164 0.08896878 0.11359171 0.1664849 -0.24126124 0.4672275 0.21900403 -0.36189485 -0.4945176 -0.6769589 0.2607106 -0.23656474 0.4507603
수 0.02883742 0.42996085 0.0004123806 -0.45431805 -0.162478 0.19250546 0.05413523 -0.45516506 -0.18070136 -0.45863694 -0.11158937 0.5099873 0.096652105 0.15328327 -0.2014455 0.1271352 0.33448732 -0.47033378 -0.33441767 -0.48474762 0.0030658038 -0.12454774 0.26646873 0.030130748 -0.2957142 0.066088095 0.33783853 0.13868998 -0.27181205 0.7114764 0.09830259 -0.016035106 0.31792894 -0.0025014505 0.2905302 -0.40291506 0.2063226 0.627627 -0.14677113 0.021991892 -0.25602147 0.16394284 -0.22259207 0.50874 0.0054267235 -0.45276684 0.59801674 0.26600215 0.036271952 -0.35814205 0.025676569 -0.39530328 -0.34929648 0.3833162 0.15315995 -0.39948398 -0.17044368 0.09249974 0.29102787 -0.14742315 -0.15760218 -0.78527814 -0.1701046 0.2846633 -0.45598796 -0.048809357 0.35831115 -0.33653766 0.12004743 -0.098280475 0.58425826 0.43534556 -0.2782465 0.3634323 0.4429731 -0.28915012 -0.30610737 0.2564395 -0.13337415 0.3635754 0.4629026 0.72081715 -0.32717636 0.14649874 -0.1740343 -0.012203622 0.3688426 0.13957062 0.06894291 0.068227306 0.10819042 -0.25785527 0.42210016 0.21808352 -0.32336363 -0.425914 -0.6029842 0.28667828 -0.25808847 0.4188755
찍다 0.03435948 0.41029295 -0.028073499 -0.4605077 -0.1482672 0.1417775 0.029009806 -0.37442237 -0.13206711 -0.37502256 -0.078549996 0.4481502 0.09454611 0.19414528 -0.20935239 0.12834206 0.30608952 -0.4488758 -0.3315485 -0.4242414 0.017345235 -0.0975547 0.21373272 0.009776754 -0.26838455 0.048667923 0.31140602 0.09759751 -0.2721532 0.6842068 0.12020795 -0.0019804614 0.29822212 0.0026273406 0.2650743 -0.3314486 0.18788171 0.5982092 -0.08516955 0.025245486 -0.27126527 0.14151007 -0.18887128 0.46258748 0.033818334 -0.41502884 0.57363 0.22557 0.050627857 -0.28954998 0.0065863198 -0.34306434 -0.31345826 0.3242258 0.16996002 -0.36041692 -0.18553728 0.075356424 0.25642765 -0.1639207 -0.11929202 -0.7266663 -0.16411114 0.26398194 -0.4138809 -0.06389995 0.309282 -0.29379618 0.13146529 -0.107449025 0.5515763 0.42151332 -0.27943888 0.3124735 0.41656423 -0.2670886 -0.27848288 0.21452305 -0.10655047 0.33249107 0.38552192 0.67012024 -0.3475423 0.09298434 -0.19408453 0.0159713 0.35574788 0.14527765 0.069803886 0.09994204 0.13239992 -0.20187978 0.3939382 0.16842943 -0.31732717 -0.40754706 -0.565767 0.22308207 -0.20537414 0.37751302
까지 0.036275 0.5676034 -0.02516364 -0.6043058 -0.18627217 0.21167357 0.06785044 -0.5302302 -0.17230386 -0.5114628 -0.089420654 0.6234113 0.12733868 0.25476947 -0.2392895 0.14624393 0.42427102 -0.5944238 -0.42054385 -0.56483096 0.008509247 -0.1330875 0.27343044 0.014103553 -0.36268404 0.073132254 0.39354995 0.14299762 -0.35964474 0.9020042 0.1637761 -0.027472723 0.3907883 0.007380966 0.35252267 -0.44284067 0.23678972 0.79632705 -0.1198761 0.024834406 -0.36292595 0.20528471 -0.2637342 0.6347357 0.052560106 -0.5536278 0.75342613 0.29833832 0.06308639 -0.3923348 0.03529388 -0.46135354 -0.41176847 0.46185437 0.23217875 -0.49736166 -0.24666783 0.091427386 0.33774468 -0.22595523 -0.18557627 -0.98231745 -0.20637411 0.35326612 -0.5610478 -0.095730074 0.39587355 -0.3801744 0.1722334 -0.13297251 0.73508936 0.55643886 -0.35938674 0.4120551 0.5489182 -0.3726792 -0.37886903 0.2729621 -0.1505043 0.47426564 0.51906747 0.8872864 -0.4337157 0.14290358 -0.26537868 0.03279293 0.47334006 0.1912767 0.11434337 0.11516053 0.16591619 -0.25227386 0.5296065 0.23353481 -0.40500385 -0.54192674 -0.75454414 0.29141903 -0.27420872 0.5041357
~~ 0.039235428 0.5284406 -0.0454545 -0.5794127 -0.17324886 0.18630628 0.055931065 -0.46802878 -0.15942821 -0.46944404 -0.085538834 0.577484 0.10785089 0.24934465 -0.23022906 0.14167991 0.3944019 -0.5738223 -0.4039614 -0.523286 0.014319275 -0.13047108 0.25780377 0.020199887 -0.34309027 0.067620695 0.37328416 0.13624968 -0.3385715 0.8403584 0.15194617 -0.033612642 0.36497596 0.0036189687 0.34310725 -0.41306287 0.23752758 0.7443158 -0.112557486 0.030036343 -0.36295232 0.19064479 -0.24910027 0.58103275 0.045956995 -0.52172506 0.7185305 0.28177032 0.06847682 -0.3747904 0.04385122 -0.43147504 -0.39682567 0.4329611 0.21504712 -0.45874012 -0.24207471 0.09866412 0.30972484 -0.22086346 -0.17010836 -0.9421684 -0.18170363 0.3374986 -0.52958417 -0.0816347 0.37942877 -0.34700525 0.15298016 -0.120248735 0.6973787 0.5219516 -0.3374094 0.38577935 0.5076938 -0.3551574 -0.35411057 0.26344332 -0.1466336 0.4461682 0.48860854 0.83342254 -0.41128826 0.12600945 -0.24825436 0.03203727 0.45740175 0.18499428 0.09792432 0.111205935 0.16181484 -0.23914188 0.49667063 0.22964028 -0.38742194 -0.51719105 -0.7163582 0.28346518 -0.2553177 0.47265115
에게 0.0452738 0.5113392 -0.037341423 -0.5525475 -0.17602985 0.18401721 0.053283166 -0.47939983 -0.16202395 -0.4631102 -0.103263445 0.5579633 0.11247682 0.22015803 -0.23373604 0.14149873 0.37354267 -0.54167885 -0.38670138 -0.51473767 0.014644915 -0.13586405 0.24627374 0.016449966 -0.32586214 0.060455035 0.37906954 0.13169399 -0.31998855 0.8100412 0.13968319 -0.017234534 0.35391545 0.005467892 0.32657295 -0.39750248 0.22621289 0.7114923 -0.11850774 0.029941669 -0.3281706 0.18142419 -0.24835572 0.55655324 0.0259065 -0.52838045 0.6891207 0.2763924 0.07715107 -0.36230788 0.047303736 -0.42352524 -0.3799214 0.40700507 0.20533776 -0.44972256 -0.21580833 0.08198969 0.3133365 -0.20053354 -0.17347923 -0.8928365 -0.18108496 0.31387174 -0.49851453 -0.06642085 0.37541854 -0.35568273 0.1588511 -0.12843744 0.66416717 0.5012686 -0.3268828 0.37886077 0.4990552 -0.33163568 -0.33970731 0.2599947 -0.13961124 0.4229932 0.4723632 0.8054769 -0.40208137 0.13142814 -0.22754623 0.020465422 0.41915047 0.16964838 0.08310036 0.11254462 0.15187687 -0.24855468 0.4687559 0.21502893 -0.37463966 -0.49193457 -0.6876898 0.2852681 -0.24834603 0.45690084
받다 0.038920444 0.50264174 -0.02865304 -0.5450007 -0.18167421 0.19821168 0.05636616 -0.48165247 -0.16999744 -0.47086525 -0.09347682 0.5645049 0.103966564 0.20794247 -0.23043366 0.1489585 0.3714154 -0.5426495 -0.38512576 -0.5262902 0.018052049 -0.1419187 0.26292685 0.020991443 -0.33083218 0.07088599 0.3734394 0.13602234 -0.30994466 0.81903493 0.14406385 -0.00730267 0.36615375 0.002837687 0.32261673 -0.41254842 0.2325819 0.7247593 -0.127568 0.029597161 -0.3204975 0.1836541 -0.23718792 0.5676944 0.02314398 -0.5210496 0.6874025 0.28835693 0.066107765 -0.36774546 0.038266342 -0.4206674 -0.3810859 0.42383143 0.20307396 -0.45314533 -0.2181526 0.099632405 0.31374896 -0.18758067 -0.16758491 -0.8946651 -0.18698461 0.3256846 -0.49761298 -0.07690979 0.38465208 -0.36681753 0.14628486 -0.124398336 0.6778991 0.510879 -0.321673 0.39456826 0.50902057 -0.32771432 -0.34044385 0.2650072 -0.13227981 0.41825405 0.48052776 0.8137828 -0.39541176 0.14275439 -0.21717547 0.0010681836 0.4201973 0.15969038 0.08476877 0.095808744 0.14847781 -0.25346202 0.47594333 0.21675733 -0.37474826 -0.48324704 -0.68436795 0.28770182 -0.2631952 0.46158153
.... 0.033437625 0.509639 -0.02851044 -0.54367274 -0.18495959 0.19345944 0.05895254 -0.4677925 -0.17238112 -0.47105595 -0.09466099 0.56723267 0.10215503 0.22480918 -0.22713277 0.12972549 0.3756224 -0.5447443 -0.39530018 -0.5159619 0.016210398 -0.13669224 0.2650147 0.02183377 -0.3297409 0.06825262 0.35852414 0.13689992 -0.31751928 0.8220959 0.15055276 -0.0042526284 0.36063454 0.008454761 0.32881638 -0.39877403 0.2310119 0.7133807 -0.13069728 0.032122023 -0.32123148 0.1807929 -0.24037692 0.568347 0.039259452 -0.51651055 0.6879166 0.27097866 0.06728492 -0.37194636 0.035709433 -0.4276803 -0.36603373 0.40973547 0.2065208 -0.4490608 -0.21605499 0.099475116 0.3030354 -0.19350867 -0.16756424 -0.8983019 -0.18491904 0.32163456 -0.5129419 -0.07354442 0.36932987 -0.3539056 0.1396914 -0.11794022 0.67648673 0.509421 -0.32347193 0.3776361 0.503619 -0.33380616 -0.3296913 0.2674786 -0.13820943 0.41485247 0.47483566 0.81174266 -0.3937523 0.1288328 -0.22318614 0.021387128 0.4154231 0.16495486 0.09741678 0.1057147 0.14957097 -0.24320103 0.4766908 0.23137407 -0.3617616 -0.47927806 -0.6881718 0.2900588 -0.26213345 0.4624154
개 0.04718845 0.54295164 -0.030335601 -0.54890966 -0.19829726 0.19845898 0.055562235 -0.5046391 -0.19653302 -0.5099023 -0.09811434 0.5816189 0.102742374 0.20094669 -0.24141212 0.13901128 0.40455785 -0.56046426 -0.41037837 -0.5729455 0.01972794 -0.15208493 0.29700795 0.03377225 -0.3357311 0.07076211 0.38650367 0.14031693 -0.33057514 0.83969563 0.16396174 -0.018174812 0.39326024 0.020780468 0.32059342 -0.4356831 0.24086648 0.7611127 -0.16040368 0.042099886 -0.34156755 0.19138205 -0.25319216 0.5989356 0.042921524 -0.54551977 0.70664454 0.28881082 0.07406743 -0.41256166 0.037757702 -0.46201771 -0.3986824 0.45088577 0.20325592 -0.4611583 -0.20783395 0.11075698 0.31794775 -0.19111358 -0.16893633 -0.9306657 -0.21396345 0.34835285 -0.5430322 -0.067434356 0.39940798 -0.3883317 0.1474401 -0.12463 0.6892363 0.5400137 -0.31753507 0.4261778 0.5281453 -0.34292433 -0.344281 0.28108713 -0.15065555 0.43382525 0.5277984 0.8531948 -0.39790437 0.15141769 -0.21483764 -0.0032380922 0.43792844 0.15855068 0.09122095 0.09222552 0.13949345 -0.26475856 0.5062037 0.25691637 -0.4056083 -0.5016222 -0.70910317 0.30930278 -0.2825843 0.4937416
알다 0.02492456 0.46228096 -0.01411894 -0.50144184 -0.17013115 0.17516695 0.059991676 -0.43110684 -0.17344645 -0.43136302 -0.080783404 0.51266056 0.09234164 0.18516733 -0.20848368 0.12550703 0.33807084 -0.5034881 -0.35539883 -0.48287478 0.0021595648 -0.13275369 0.24399345 0.020676443 -0.3080859 0.06114817 0.34102 0.13260429 -0.2857017 0.7487333 0.12635788 -0.011947144 0.33505648 0.00037921494 0.29970723 -0.38429546 0.216376 0.6584182 -0.12856705 0.023597473 -0.29948312 0.16631834 -0.21613164 0.5254243 0.029145796 -0.46550742 0.6284507 0.2582326 0.04449773 -0.36196008 0.032094706 -0.38729444 -0.34132165 0.39052957 0.17246364 -0.40462306 -0.19153239 0.09328341 0.28261715 -0.1684128 -0.15192442 -0.8144332 -0.16872531 0.30720899 -0.4756889 -0.07127132 0.3417308 -0.33175012 0.13140397 -0.10193003 0.613538 0.44183 -0.2848077 0.36243284 0.4644711 -0.29979533 -0.31601 0.24054578 -0.13141555 0.38842013 0.4479563 0.73135626 -0.34627268 0.12616837 -0.20196375 -0.004252047 0.39001623 0.14201532 0.08057879 0.08560417 0.12183009 -0.2242497 0.44033918 0.22057864 -0.34308392 -0.4375841 -0.6272368 0.27492097 -0.24595393 0.41250283
